<?xml version="1.0"?>
<opencv_storage>
<cascade>
  <stageType>BOOST</stageType>
  <featureType>HAAR</featureType>
  <height>24</height>
  <width>24</width>
  <stageParams>
    <boostType>GAB</boostType>
    <minHitRate>9.9500000476837158e-01</minHitRate>
    <maxFalseAlarm>5.0000000000000000e-01</maxFalseAlarm>
    <weightTrimRate>9.4999998807907104e-01</weightTrimRate>
    <maxDepth>1</maxDepth>
    <maxWeakCount>100</maxWeakCount></stageParams>
  <featureParams>
    <maxCatCount>0</maxCatCount>
    <featSize>1</featSize>
    <mode>BASIC</mode></featureParams>
  <stageNum>20</stageNum>
  <stages>
    <!-- stage 0 -->
    <_>
      <maxWeakCount>5</maxWeakCount>
      <stageThreshold>-1.6118545532226563e+00</stageThreshold>
      <weakClassifiers>
        <_>
          <internalNodes>
            0 -1 81 2.0753782987594604e-01</internalNodes>
          <leafValues>
            -7.1536141633987427e-01 7.1226418018341064e-01</leafValues></_>
        <_>
          <internalNodes>
            0 -1 30 4.8720795661211014e-02</internalNodes>
          <leafValues>
            -6.0274302959442139e-01 6.5249890089035034e-01</leafValues></_>
        <_>
          <internalNodes>
            0 -1 113 1.8827151507139206e-02</internalNodes>
          <leafValues>
            -5.2918946743011475e-01 4.6268942952156067e-01</leafValues></_>
        <_>
          <internalNodes>
            0 -1 124 -2.5078322738409042e-02</internalNodes>
          <leafValues>
            5.7531565427780151e-01 -3.4435769915580750e-01</leafValues></_>
        <_>
          <internalNodes>
            0 -1 114 4.0538068860769272e-02</internalNodes>
          <leafValues>
            -3.3987623453140259e-01 6.4814758300781250e-01</leafValues></_></weakClassifiers></_>
    <!-- stage 1 -->
    <_>
      <maxWeakCount>8</maxWeakCount>
      <stageThreshold>-1.6121344566345215e+00</stageThreshold>
      <weakClassifiers>
        <_>
          <internalNodes>
            0 -1 134 9.6187196671962738e-02</internalNodes>
          <leafValues>
            -7.0864945650100708e-01 6.5898615121841431e-01</leafValues></_>
        <_>
          <internalNodes>
            0 -1 172 -4.1680261492729187e-02</internalNodes>
          <leafValues>
            4.6330124139785767e-01 -5.9928506612777710e-01</leafValues></_>
        <_>
          <internalNodes>
            0 -1 155 3.4326292574405670e-02</internalNodes>
          <leafValues>
            -3.3856076002120972e-01 5.5501323938369751e-01</leafValues></_>
        <_>
          <internalNodes>
            0 -1 194 4.0211413055658340e-02</internalNodes>
          <leafValues>
            -3.4361559152603149e-01 6.4496314525604248e-01</leafValues></_>
        <_>
          <internalNodes>
            0 -1 143 1.6770675778388977e-02</internalNodes>
          <leafValues>
            -4.5351418852806091e-01 4.1724097728729248e-01</leafValues></_>
        <_>
          <internalNodes>
            0 -1 48 3.3027328550815582e-02</internalNodes>
          <leafValues>
            -2.6097264885902405e-01 5.4065871238708496e-01</leafValues></_>
        <_>
          <internalNodes>
            0 -1 130 2.6803636923432350e-02</internalNodes>
          <leafValues>
            -2.9995542764663696e-01 4.8697981238365173e-01</leafValues></_>
        <_>
          <internalNodes>
            0 -1 182 9.1347843408584595e-03</internalNodes>
          <leafValues>
            -2.8809046745300293e-01 5.1906460523605347e-01</leafValues></_></weakClassifiers></_>
    <!-- stage 2 -->
    <_>
      <maxWeakCount>11</maxWeakCount>
      <stageThreshold>-1.8226821422576904e+00</stageThreshold>
      <weakClassifiers>
        <_>
          <internalNodes>
            0 -1 121 1.3271218538284302e-01</internalNodes>
          <leafValues>
            -6.4460968971252441e-01 5.3808355331420898e-01</leafValues></_>
        <_>
          <internalNodes>
            0 -1 214 -1.7199877649545670e-02</internalNodes>
          <leafValues>
            6.3779222965240479e-01 -3.8341245055198669e-01</leafValues></_>
        <_>
          <internalNodes>
            0 -1 85 4.5903768390417099e-02</internalNodes>
          <leafValues>
            -4.6207663416862488e-01 4.0361678600311279e-01</leafValues></_>
        <_>
          <internalNodes>
            0 -1 99 -2.8380481526255608e-02</internalNodes>
          <leafValues>
            5.8933657407760620e-01 -2.4783262610435486e-01</leafValues></_>
        <_>
          <internalNodes>
            0 -1 101 6.3009589910507202e-02</internalNodes>
          <leafValues>
            -2.3330406844615936e-01 5.2730143070220947e-01</leafValues></_>
        <_>
          <internalNodes>
            0 -1 359 -7.8532414045184851e-04</internalNodes>
          <leafValues>
            -4.6509227156639099e-01 2.8283470869064331e-01</leafValues></_>
        <_>
          <internalNodes>
            0 -1 89 1.7384124919772148e-02</internalNodes>
          <leafValues>
            -2.3369032144546509e-01 5.6071650981903076e-01</leafValues></_>
        <_>
          <internalNodes>
            0 -1 51 -7.3567494750022888e-02</internalNodes>
          <leafValues>
            6.1859643459320068e-01 -1.6803869605064392e-01</leafValues></_>
        <_>
          <internalNodes>
            0 -1 22 1.0251684486865997e-01</internalNodes>
          <leafValues>
            2.0793589949607849e-01 -6.8844205141067505e-01</leafValues></_>
        <_>
          <internalNodes>
            0 -1 71 -1.1006125248968601e-02</internalNodes>
          <leafValues>
            2.0605835318565369e-01 -4.9310064315795898e-01</leafValues></_>
        <_>
          <internalNodes>
            0 -1 2 3.8716528564691544e-02</internalNodes>
          <leafValues>
            -4.0232327580451965e-01 2.7703279256820679e-01</leafValues></_></weakClassifiers></_>
    <!-- stage 3 -->
    <_>
      <maxWeakCount>12</maxWeakCount>
      <stageThreshold>-1.6118996143341064e+00</stageThreshold>
      <weakClassifiers>
        <_>
          <internalNodes>
            0 -1 118 1.4650864899158478e-01</internalNodes>
          <leafValues>
            -6.1897915601730347e-01 5.9002768993377686e-01</leafValues></_>
        <_>
          <internalNodes>
            0 -1 111 3.4565009176731110e-02</internalNodes>
          <leafValues>
            -6.1119914054870605e-01 2.4131047725677490e-01</leafValues></_>
        <_>
          <internalNodes>
            0 -1 144 2.3316780105233192e-02</internalNodes>
          <leafValues>
            -4.0879368782043457e-01 3.2632216811180115e-01</leafValues></_>
        <_>
          <internalNodes>
            0 -1 27 -3.0243329703807831e-02</internalNodes>
          <leafValues>
            -7.2536784410476685e-01 2.0798563957214355e-01</leafValues></_>
        <_>
          <internalNodes>
            0 -1 338 -3.2816607505083084e-02</internalNodes>
          <leafValues>
            5.9604620933532715e-01 -2.0602920651435852e-01</leafValues></_>
        <_>
          <internalNodes>
            0 -1 32 -6.8900242447853088e-02</internalNodes>
          <leafValues>
            -8.0904823541641235e-01 1.1650085449218750e-01</leafValues></_>
        <_>
          <internalNodes>
            0 -1 324 9.0758681297302246e-02</internalNodes>
          <leafValues>
            -2.0664183795452118e-01 5.6337839365005493e-01</leafValues></_>
        <_>
          <internalNodes>
            0 -1 95 2.5341049768030643e-03</internalNodes>
          <leafValues>
            -3.3552619814872742e-01 2.9915037751197815e-01</leafValues></_>
        <_>
          <internalNodes>
            0 -1 97 -6.7303609102964401e-03</internalNodes>
          <leafValues>
            3.4015056490898132e-01 -2.8490331768989563e-01</leafValues></_>
        <_>
          <internalNodes>
            0 -1 175 1.5015242621302605e-02</internalNodes>
          <leafValues>
            -1.6297779977321625e-01 5.6966596841812134e-01</leafValues></_>
        <_>
          <internalNodes>
            0 -1 188 -3.3414676785469055e-02</internalNodes>
          <leafValues>
            6.6587001085281372e-01 -1.1836945265531540e-01</leafValues></_>
        <_>
          <internalNodes>
            0 -1 34 1.8088191747665405e-01</internalNodes>
          <leafValues>
            -3.0840069055557251e-01 3.8235715031623840e-01</leafValues></_></weakClassifiers></_>
    <!-- stage 4 -->
    <_>
      <maxWeakCount>15</maxWeakCount>
      <stageThreshold>-1.6676024198532104e+00</stageThreshold>
      <weakClassifiers>
        <_>
          <internalNodes>
            0 -1 149 -3.7814207375049591e-02</internalNodes>
          <leafValues>
            3.9150944352149963e-01 -6.1295181512832642e-01</leafValues></_>
        <_>
          <internalNodes>
            0 -1 117 1.7105799168348312e-02</internalNodes>
          <leafValues>
            -6.6026037931442261e-01 2.0961168408393860e-01</leafValues></_>
        <_>
          <internalNodes>
            0 -1 109 -8.0541834235191345e-02</internalNodes>
          <leafValues>
            5.5443674325942993e-01 -2.4751424789428711e-01</leafValues></_>
        <_>
          <internalNodes>
            0 -1 18 1.1926358565688133e-03</internalNodes>
          <leafValues>
            1.9502721726894379e-01 -4.6948790550231934e-01</leafValues></_>
        <_>
          <internalNodes>
            0 -1 7 3.0868042260408401e-02</internalNodes>
          <leafValues>
            -4.8895666003227234e-01 1.9000448286533356e-01</leafValues></_>
        <_>
          <internalNodes>
            0 -1 301 8.6526328232139349e-05</internalNodes>
          <leafValues>
            1.8057110905647278e-01 -5.4329639673233032e-01</leafValues></_>
        <_>
          <internalNodes>
            0 -1 301 -8.8427899754606187e-05</internalNodes>
          <leafValues>
            -4.2680576443672180e-01 2.3695038259029388e-01</leafValues></_>
        <_>
          <internalNodes>
            0 -1 225 -2.6701065507950261e-05</internalNodes>
          <leafValues>
            3.5321488976478577e-01 -3.2504263520240784e-01</leafValues></_>
        <_>
          <internalNodes>
            0 -1 255 9.7812842577695847e-03</internalNodes>
          <leafValues>
            -2.3832432925701141e-01 4.9564948678016663e-01</leafValues></_>
        <_>
          <internalNodes>
            0 -1 159 -2.4135420098900795e-02</internalNodes>
          <leafValues>
            6.0655295848846436e-01 -1.6794364154338837e-01</leafValues></_>
        <_>
          <internalNodes>
            0 -1 356 -1.1285585060250014e-04</internalNodes>
          <leafValues>
            -4.9824315309524536e-01 1.9872458279132843e-01</leafValues></_>
        <_>
          <internalNodes>
            0 -1 355 9.1962545411661267e-05</internalNodes>
          <leafValues>
            1.5847638249397278e-01 -4.9093195796012878e-01</leafValues></_>
        <_>
          <internalNodes>
            0 -1 16 2.2405311465263367e-01</internalNodes>
          <leafValues>
            1.1657467484474182e-01 -7.3110532760620117e-01</leafValues></_>
        <_>
          <internalNodes>
            0 -1 25 -4.0826632175594568e-04</internalNodes>
          <leafValues>
            -4.9128693342208862e-01 1.5355260670185089e-01</leafValues></_>
        <_>
          <internalNodes>
            0 -1 26 2.0850286819040775e-04</internalNodes>
          <leafValues>
            2.0168927311897278e-01 -4.6387284994125366e-01</leafValues></_></weakClassifiers></_>
    <!-- stage 5 -->
    <_>
      <maxWeakCount>18</maxWeakCount>
      <stageThreshold>-1.4413394927978516e+00</stageThreshold>
      <weakClassifiers>
        <_>
          <internalNodes>
            0 -1 62 2.4568989872932434e-02</internalNodes>
          <leafValues>
            -6.4273506402969360e-01 1.7869415879249573e-01</leafValues></_>
        <_>
          <internalNodes>
            0 -1 82 2.8660738468170166e-01</internalNodes>
          <leafValues>
            -3.5516536235809326e-01 4.2758759856224060e-01</leafValues></_>
        <_>
          <internalNodes>
            0 -1 286 -3.6047965288162231e-02</internalNodes>
          <leafValues>
            3.2607957720756531e-01 -2.9576015472412109e-01</leafValues></_>
        <_>
          <internalNodes>
            0 -1 84 2.4551630020141602e-02</internalNodes>
          <leafValues>
            -1.8067857623100281e-01 4.8838362097740173e-01</leafValues></_>
        <_>
          <internalNodes>
            0 -1 321 -6.1123701743781567e-04</internalNodes>
          <leafValues>
            -4.5712152123451233e-01 1.8117365241050720e-01</leafValues></_>
        <_>
          <internalNodes>
            0 -1 192 -4.7842100262641907e-02</internalNodes>
          <leafValues>
            4.8955243825912476e-01 -1.6115136444568634e-01</leafValues></_>
        <_>
          <internalNodes>
            0 -1 189 2.5121316313743591e-02</internalNodes>
          <leafValues>
            -2.6765581965446472e-01 3.6624047160148621e-01</leafValues></_>
        <_>
          <internalNodes>
            0 -1 244 -1.5249415300786495e-03</internalNodes>
          <leafValues>
            -4.4545796513557434e-01 2.2533847391605377e-01</leafValues></_>
        <_>
          <internalNodes>
            0 -1 57 3.8616508245468140e-02</internalNodes>
          <leafValues>
            9.1208413243293762e-02 -8.2548743486404419e-01</leafValues></_>
        <_>
          <internalNodes>
            0 -1 352 1.3198505621403456e-03</internalNodes>
          <leafValues>
            1.2850375473499298e-01 -5.0515502691268921e-01</leafValues></_>
        <_>
          <internalNodes>
            0 -1 283 1.1386577971279621e-02</internalNodes>
          <leafValues>
            -4.6754604578018188e-01 1.6415874660015106e-01</leafValues></_>
        <_>
          <internalNodes>
            0 -1 14 1.0796585120260715e-02</internalNodes>
          <leafValues>
            9.8433434963226318e-02 -6.6365134716033936e-01</leafValues></_>
        <_>
          <internalNodes>
            0 -1 126 -3.8617597892880440e-03</internalNodes>
          <leafValues>
            3.6800709366798401e-01 -2.1034336090087891e-01</leafValues></_>
        <_>
          <internalNodes>
            0 -1 237 -1.1466835712781176e-04</internalNodes>
          <leafValues>
            -3.7796747684478760e-01 1.9358946382999420e-01</leafValues></_>
        <_>
          <internalNodes>
            0 -1 65 4.0649534203112125e-03</internalNodes>
          <leafValues>
            -1.7925806343555450e-01 4.1177126765251160e-01</leafValues></_>
        <_>
          <internalNodes>
            0 -1 253 -1.6617167275398970e-03</internalNodes>
          <leafValues>
            4.4905623793601990e-01 -1.9771689176559448e-01</leafValues></_>
        <_>
          <internalNodes>
            0 -1 362 2.6929203886538744e-04</internalNodes>
          <leafValues>
            1.3417083024978638e-01 -5.5808466672897339e-01</leafValues></_>
        <_>
          <internalNodes>
            0 -1 139 2.6246150955557823e-03</internalNodes>
          <leafValues>
            -1.6683137416839600e-01 4.3791899085044861e-01</leafValues></_></weakClassifiers></_>
    <!-- stage 6 -->
    <_>
      <maxWeakCount>17</maxWeakCount>
      <stageThreshold>-1.4420546293258667e+00</stageThreshold>
      <weakClassifiers>
        <_>
          <internalNodes>
            0 -1 35 -1.9067654386162758e-02</internalNodes>
          <leafValues>
            2.4945770204067230e-01 -5.9101474285125732e-01</leafValues></_>
        <_>
          <internalNodes>
            0 -1 191 4.8686169087886810e-02</internalNodes>
          <leafValues>
            -3.9001944661140442e-01 3.6248055100440979e-01</leafValues></_>
        <_>
          <internalNodes>
            0 -1 316 -1.2285027878533583e-05</internalNodes>
          <leafValues>
            2.2907286882400513e-01 -4.4890210032463074e-01</leafValues></_>
        <_>
          <internalNodes>
            0 -1 313 -1.4997199177742004e-03</internalNodes>
          <leafValues>
            2.2380869090557098e-01 -4.0774518251419067e-01</leafValues></_>
        <_>
          <internalNodes>
            0 -1 208 -2.3470760788768530e-04</internalNodes>
          <leafValues>
            -4.7233828902244568e-01 1.8282264471054077e-01</leafValues></_>
        <_>
          <internalNodes>
            0 -1 203 -1.1721656846930273e-05</internalNodes>
          <leafValues>
            3.4143650531768799e-01 -2.5269258022308350e-01</leafValues></_>
        <_>
          <internalNodes>
            0 -1 158 3.4074750728905201e-03</internalNodes>
          <leafValues>
            -2.3634135723114014e-01 3.6482691764831543e-01</leafValues></_>
        <_>
          <internalNodes>
            0 -1 333 -1.1787366122007370e-02</internalNodes>
          <leafValues>
            4.6580058336257935e-01 -1.5614441037178040e-01</leafValues></_>
        <_>
          <internalNodes>
            0 -1 63 1.2750721536576748e-02</internalNodes>
          <leafValues>
            -1.8318022787570953e-01 4.9925449490547180e-01</leafValues></_>
        <_>
          <internalNodes>
            0 -1 348 2.4309940636157990e-03</internalNodes>
          <leafValues>
            -1.0339453816413879e-01 5.6670248508453369e-01</leafValues></_>
        <_>
          <internalNodes>
            0 -1 228 2.1107174456119537e-02</internalNodes>
          <leafValues>
            -2.1208158135414124e-01 3.2058045268058777e-01</leafValues></_>
        <_>
          <internalNodes>
            0 -1 37 -2.1276436746120453e-02</internalNodes>
          <leafValues>
            4.2766284942626953e-01 -1.8548105657100677e-01</leafValues></_>
        <_>
          <internalNodes>
            0 -1 226 -3.5751145333051682e-04</internalNodes>
          <leafValues>
            -5.1915776729583740e-01 1.5294751524925232e-01</leafValues></_>
        <_>
          <internalNodes>
            0 -1 122 1.0956124961376190e-01</internalNodes>
          <leafValues>
            -1.3635197281837463e-01 6.4448696374893188e-01</leafValues></_>
        <_>
          <internalNodes>
            0 -1 58 1.4653027988970280e-02</internalNodes>
          <leafValues>
            -2.2484201192855835e-01 3.2644131779670715e-01</leafValues></_>
        <_>
          <internalNodes>
            0 -1 300 -8.6840533185750246e-05</internalNodes>
          <leafValues>
            -4.5115473866462708e-01 1.5196454524993896e-01</leafValues></_>
        <_>
          <internalNodes>
            0 -1 148 2.6987042278051376e-02</internalNodes>
          <leafValues>
            -1.6239625215530396e-01 5.3714418411254883e-01</leafValues></_></weakClassifiers></_>
    <!-- stage 7 -->
    <_>
      <maxWeakCount>19</maxWeakCount>
      <stageThreshold>-1.3900566101074219e+00</stageThreshold>
      <weakClassifiers>
        <_>
          <internalNodes>
            0 -1 154 -9.3761980533599854e-03</internalNodes>
          <leafValues>
            3.2417583465576172e-01 -5.5187320709228516e-01</leafValues></_>
        <_>
          <internalNodes>
            0 -1 125 -2.2648811340332031e-02</internalNodes>
          <leafValues>
            3.6177572607994080e-01 -3.0291575193405151e-01</leafValues></_>
        <_>
          <internalNodes>
            0 -1 269 -1.3630985631607473e-04</internalNodes>
          <leafValues>
            -5.3466063737869263e-01 1.6871957480907440e-01</leafValues></_>
        <_>
          <internalNodes>
            0 -1 229 9.8816955869551748e-05</internalNodes>
          <leafValues>
            1.7719322443008423e-01 -4.2077541351318359e-01</leafValues></_>
        <_>
          <internalNodes>
            0 -1 276 2.8710480546578765e-04</internalNodes>
          <leafValues>
            2.3743784427642822e-01 -3.8037997484207153e-01</leafValues></_>
        <_>
          <internalNodes>
            0 -1 323 -1.1388674465706572e-05</internalNodes>
          <leafValues>
            1.9615359604358673e-01 -3.8639521598815918e-01</leafValues></_>
        <_>
          <internalNodes>
            0 -1 152 6.4867474138736725e-02</internalNodes>
          <leafValues>
            -1.6480179131031036e-01 6.9285255670547485e-01</leafValues></_>
        <_>
          <internalNodes>
            0 -1 3 -1.6233634948730469e-01</internalNodes>
          <leafValues>
            -8.9224857091903687e-01 1.5382774174213409e-01</leafValues></_>
        <_>
          <internalNodes>
            0 -1 325 -5.1629223162308335e-04</internalNodes>
          <leafValues>
            1.3700838387012482e-01 -3.8003227114677429e-01</leafValues></_>
        <_>
          <internalNodes>
            0 -1 52 -5.9172771871089935e-02</internalNodes>
          <leafValues>
            5.0985139608383179e-01 -1.2012642621994019e-01</leafValues></_>
        <_>
          <internalNodes>
            0 -1 70 4.2918212711811066e-02</internalNodes>
          <leafValues>
            -2.0429426431655884e-01 4.0369132161140442e-01</leafValues></_>
        <_>
          <internalNodes>
            0 -1 344 6.0265399952186272e-05</internalNodes>
          <leafValues>
            -3.2246109843254089e-01 1.9380742311477661e-01</leafValues></_>
        <_>
          <internalNodes>
            0 -1 103 -3.5980533808469772e-02</internalNodes>
          <leafValues>
            5.1730549335479736e-01 -1.3218308985233307e-01</leafValues></_>
        <_>
          <internalNodes>
            0 -1 91 8.3705540746450424e-03</internalNodes>
          <leafValues>
            -2.9658782482147217e-01 2.5322893261909485e-01</leafValues></_>
        <_>
          <internalNodes>
            0 -1 39 -4.0225177071988583e-03</internalNodes>
          <leafValues>
            -4.9633780121803284e-01 1.2105838209390640e-01</leafValues></_>
        <_>
          <internalNodes>
            0 -1 69 1.0183997452259064e-02</internalNodes>
          <leafValues>
            -2.2879387438297272e-01 2.7796575427055359e-01</leafValues></_>
        <_>
          <internalNodes>
            0 -1 132 -3.6253087222576141e-02</internalNodes>
          <leafValues>
            4.4983118772506714e-01 -1.7344172298908234e-01</leafValues></_>
        <_>
          <internalNodes>
            0 -1 230 -2.2410094970837235e-04</internalNodes>
          <leafValues>
            -4.0652367472648621e-01 1.8752983212471008e-01</leafValues></_>
        <_>
          <internalNodes>
            0 -1 66 -2.3333616554737091e-02</internalNodes>
          <leafValues>
            5.4956525564193726e-01 -1.4105321466922760e-01</leafValues></_></weakClassifiers></_>
    <!-- stage 8 -->
    <_>
      <maxWeakCount>17</maxWeakCount>
      <stageThreshold>-1.4333962202072144e+00</stageThreshold>
      <weakClassifiers>
        <_>
          <internalNodes>
            0 -1 151 -1.6101758927106857e-02</internalNodes>
          <leafValues>
            1.3654617965221405e-01 -5.7097285985946655e-01</leafValues></_>
        <_>
          <internalNodes>
            0 -1 29 3.8363136351108551e-02</internalNodes>
          <leafValues>
            -3.9287722110748291e-01 2.8275761008262634e-01</leafValues></_>
        <_>
          <internalNodes>
            0 -1 171 6.6435560584068298e-02</internalNodes>
          <leafValues>
            -4.7424420714378357e-01 2.1760532259941101e-01</leafValues></_>
        <_>
          <internalNodes>
            0 -1 318 -8.2759055658243597e-05</internalNodes>
          <leafValues>
            -3.3600515127182007e-01 2.6469758152961731e-01</leafValues></_>
        <_>
          <internalNodes>
            0 -1 277 -2.2778780476073734e-05</internalNodes>
          <leafValues>
            2.2441036999225616e-01 -4.2082083225250244e-01</leafValues></_>
        <_>
          <internalNodes>
            0 -1 83 -4.0424847975373268e-03</internalNodes>
          <leafValues>
            4.5504978299140930e-01 -1.9694229960441589e-01</leafValues></_>
        <_>
          <internalNodes>
            0 -1 238 -1.9498739857226610e-04</internalNodes>
          <leafValues>
            -4.0197724103927612e-01 2.0344802737236023e-01</leafValues></_>
        <_>
          <internalNodes>
            0 -1 192 -5.1210910081863403e-02</internalNodes>
          <leafValues>
            4.2697450518608093e-01 -1.7485029995441437e-01</leafValues></_>
        <_>
          <internalNodes>
            0 -1 235 1.6568023711442947e-02</internalNodes>
          <leafValues>
            -2.1060231328010559e-01 4.2986220121383667e-01</leafValues></_>
        <_>
          <internalNodes>
            0 -1 234 -2.3322138076764531e-05</internalNodes>
          <leafValues>
            2.3558494448661804e-01 -3.2724520564079285e-01</leafValues></_>
        <_>
          <internalNodes>
            0 -1 216 -4.0526203811168671e-03</internalNodes>
          <leafValues>
            -8.3314037322998047e-01 7.9371050000190735e-02</leafValues></_>
        <_>
          <internalNodes>
            0 -1 202 2.8163112699985504e-02</internalNodes>
          <leafValues>
            -1.3464047014713287e-01 6.4814019203186035e-01</leafValues></_>
        <_>
          <internalNodes>
            0 -1 360 2.0625751931220293e-03</internalNodes>
          <leafValues>
            1.4337491989135742e-01 -6.1536818742752075e-01</leafValues></_>
        <_>
          <internalNodes>
            0 -1 116 3.5871947184205055e-03</internalNodes>
          <leafValues>
            -5.2929443120956421e-01 8.8627703487873077e-02</leafValues></_>
        <_>
          <internalNodes>
            0 -1 20 -1.6899041831493378e-02</internalNodes>
          <leafValues>
            6.4413124322891235e-01 -1.0995188355445862e-01</leafValues></_>
        <_>
          <internalNodes>
            0 -1 295 -9.4594361144118011e-05</internalNodes>
          <leafValues>
            -3.3107882738113403e-01 2.0747239887714386e-01</leafValues></_>
        <_>
          <internalNodes>
            0 -1 78 3.9672639220952988e-02</internalNodes>
          <leafValues>
            -2.8424304723739624e-01 2.4640485644340515e-01</leafValues></_></weakClassifiers></_>
    <!-- stage 9 -->
    <_>
      <maxWeakCount>22</maxWeakCount>
      <stageThreshold>-1.4737304449081421e+00</stageThreshold>
      <weakClassifiers>
        <_>
          <internalNodes>
            0 -1 121 1.3264390826225281e-01</internalNodes>
          <leafValues>
            -6.1204016208648682e-01 1.5107913315296173e-01</leafValues></_>
        <_>
          <internalNodes>
            0 -1 330 -8.5627492517232895e-03</internalNodes>
          <leafValues>
            4.4038730859756470e-01 -2.7202272415161133e-01</leafValues></_>
        <_>
          <internalNodes>
            0 -1 262 -1.9770643120864406e-05</internalNodes>
          <leafValues>
            2.1718259155750275e-01 -4.0660455822944641e-01</leafValues></_>
        <_>
          <internalNodes>
            0 -1 164 2.4629665858810768e-05</internalNodes>
          <leafValues>
            -4.3971386551856995e-01 1.5168413519859314e-01</leafValues></_>
        <_>
          <internalNodes>
            0 -1 112 3.8422965444624424e-03</internalNodes>
          <leafValues>
            -1.6925232112407684e-01 4.2565271258354187e-01</leafValues></_>
        <_>
          <internalNodes>
            0 -1 133 -3.5968899726867676e-02</internalNodes>
          <leafValues>
            5.7669436931610107e-01 -1.5370307862758636e-01</leafValues></_>
        <_>
          <internalNodes>
            0 -1 197 1.3164442498236895e-04</internalNodes>
          <leafValues>
            2.3684892058372498e-01 -3.7078973650932312e-01</leafValues></_>
        <_>
          <internalNodes>
            0 -1 197 -7.8389806731138378e-05</internalNodes>
          <leafValues>
            -5.1801735162734985e-01 1.1164993792772293e-01</leafValues></_>
        <_>
          <internalNodes>
            0 -1 250 1.7364565283060074e-03</internalNodes>
          <leafValues>
            -1.5422469377517700e-01 4.3192118406295776e-01</leafValues></_>
        <_>
          <internalNodes>
            0 -1 68 1.3045153580605984e-02</internalNodes>
          <leafValues>
            -2.1130980551242828e-01 2.9891175031661987e-01</leafValues></_>
        <_>
          <internalNodes>
            0 -1 169 -2.3517983499914408e-03</internalNodes>
          <leafValues>
            -3.5401585698127747e-01 1.8684720993041992e-01</leafValues></_>
        <_>
          <internalNodes>
            0 -1 270 1.6005238285288215e-04</internalNodes>
          <leafValues>
            -3.2197099924087524e-01 2.6423814892768860e-01</leafValues></_>
        <_>
          <internalNodes>
            0 -1 87 1.0656595230102539e-01</internalNodes>
          <leafValues>
            -1.6034436225891113e-01 4.9051806330680847e-01</leafValues></_>
        <_>
          <internalNodes>
            0 -1 147 2.4895835667848587e-03</internalNodes>
          <leafValues>
            -2.6813471317291260e-01 2.5229668617248535e-01</leafValues></_>
        <_>
          <internalNodes>
            0 -1 329 -2.2178704966790974e-05</internalNodes>
          <leafValues>
            1.7288602888584137e-01 -3.6193612217903137e-01</leafValues></_>
        <_>
          <internalNodes>
            0 -1 8 -1.6272944211959839e-01</internalNodes>
          <leafValues>
            6.2605786323547363e-01 -1.1211773753166199e-01</leafValues></_>
        <_>
          <internalNodes>
            0 -1 326 -8.5555035620927811e-03</internalNodes>
          <leafValues>
            2.9953786730766296e-01 -1.9280187785625458e-01</leafValues></_>
        <_>
          <internalNodes>
            0 -1 13 5.6781258899718523e-04</internalNodes>
          <leafValues>
            1.2724012136459351e-01 -4.1205260157585144e-01</leafValues></_>
        <_>
          <internalNodes>
            0 -1 335 -2.0575516828102991e-05</internalNodes>
          <leafValues>
            2.6394596695899963e-01 -2.0339472591876984e-01</leafValues></_>
        <_>
          <internalNodes>
            0 -1 249 -5.5319478269666433e-04</internalNodes>
          <leafValues>
            3.2558789849281311e-01 -1.6400128602981567e-01</leafValues></_>
        <_>
          <internalNodes>
            0 -1 60 6.4091960666701198e-04</internalNodes>
          <leafValues>
            -1.6539207100868225e-01 3.1796103715896606e-01</leafValues></_>
        <_>
          <internalNodes>
            0 -1 136 1.0235546529293060e-01</internalNodes>
          <leafValues>
            -1.4870394766330719e-01 4.2206093668937683e-01</leafValues></_></weakClassifiers></_>
    <!-- stage 10 -->
    <_>
      <maxWeakCount>18</maxWeakCount>
      <stageThreshold>-1.3501682281494141e+00</stageThreshold>
      <weakClassifiers>
        <_>
          <internalNodes>
            0 -1 92 7.3250457644462585e-02</internalNodes>
          <leafValues>
            -6.1643832921981812e-01 4.1095890104770660e-02</leafValues></_>
        <_>
          <internalNodes>
            0 -1 341 -3.4272655844688416e-02</internalNodes>
          <leafValues>
            4.9811348319053650e-01 -2.3490445315837860e-01</leafValues></_>
        <_>
          <internalNodes>
            0 -1 263 -1.0267940524499863e-04</internalNodes>
          <leafValues>
            -5.2315622568130493e-01 1.6826115548610687e-01</leafValues></_>
        <_>
          <internalNodes>
            0 -1 302 -1.2201104254927486e-04</internalNodes>
          <leafValues>
            -3.4582629799842834e-01 2.3633934557437897e-01</leafValues></_>
        <_>
          <internalNodes>
            0 -1 100 3.3183716237545013e-02</internalNodes>
          <leafValues>
            1.3652828335762024e-01 -6.1689203977584839e-01</leafValues></_>
        <_>
          <internalNodes>
            0 -1 31 1.8988968804478645e-02</internalNodes>
          <leafValues>
            -5.0044435262680054e-01 1.7006018757820129e-01</leafValues></_>
        <_>
          <internalNodes>
            0 -1 343 3.6637476296164095e-04</internalNodes>
          <leafValues>
            -2.0336377620697021e-01 3.2883524894714355e-01</leafValues></_>
        <_>
          <internalNodes>
            0 -1 11 -2.3848209530115128e-02</internalNodes>
          <leafValues>
            -8.0817997455596924e-01 6.4654104411602020e-02</leafValues></_>
        <_>
          <internalNodes>
            0 -1 104 3.4907688386738300e-03</internalNodes>
          <leafValues>
            -3.2355508208274841e-01 1.5575139224529266e-01</leafValues></_>
        <_>
          <internalNodes>
            0 -1 213 -1.9165773410350084e-03</internalNodes>
          <leafValues>
            3.4477323293685913e-01 -1.7108824849128723e-01</leafValues></_>
        <_>
          <internalNodes>
            0 -1 354 -1.7361118225380778e-03</internalNodes>
          <leafValues>
            -6.1362987756729126e-01 7.5397402048110962e-02</leafValues></_>
        <_>
          <internalNodes>
            0 -1 181 8.5673667490482330e-04</internalNodes>
          <leafValues>
            -1.5620574355125427e-01 3.8367781043052673e-01</leafValues></_>
        <_>
          <internalNodes>
            0 -1 165 3.8668035995215178e-04</internalNodes>
          <leafValues>
            2.1952910721302032e-01 -2.9030811786651611e-01</leafValues></_>
        <_>
          <internalNodes>
            0 -1 129 -3.0071668326854706e-02</internalNodes>
          <leafValues>
            -5.9697121381759644e-01 8.6629174649715424e-02</leafValues></_>
        <_>
          <internalNodes>
            0 -1 75 -2.2163113579154015e-02</internalNodes>
          <leafValues>
            -6.6742998361587524e-01 7.6688252389431000e-02</leafValues></_>
        <_>
          <internalNodes>
            0 -1 339 2.0900188013911247e-02</internalNodes>
          <leafValues>
            -1.4081479609012604e-01 4.2535021901130676e-01</leafValues></_>
        <_>
          <internalNodes>
            0 -1 15 2.1949792280793190e-03</internalNodes>
          <leafValues>
            -1.7943757772445679e-01 3.0030193924903870e-01</leafValues></_>
        <_>
          <internalNodes>
            0 -1 145 -6.9625508040189743e-03</internalNodes>
          <leafValues>
            3.5256746411323547e-01 -1.5973666310310364e-01</leafValues></_></weakClassifiers></_>
    <!-- stage 11 -->
    <_>
      <maxWeakCount>22</maxWeakCount>
      <stageThreshold>-1.3664290904998779e+00</stageThreshold>
      <weakClassifiers>
        <_>
          <internalNodes>
            0 -1 331 -1.8088631331920624e-02</internalNodes>
          <leafValues>
            2.1538461744785309e-01 -5.3744494915008545e-01</leafValues></_>
        <_>
          <internalNodes>
            0 -1 187 -3.8656685501337051e-03</internalNodes>
          <leafValues>
            3.7246647477149963e-01 -2.5385850667953491e-01</leafValues></_>
        <_>
          <internalNodes>
            0 -1 156 9.2869903892278671e-03</internalNodes>
          <leafValues>
            -2.8858351707458496e-01 2.2312155365943909e-01</leafValues></_>
        <_>
          <internalNodes>
            0 -1 42 -1.1869119480252266e-02</internalNodes>
          <leafValues>
            1.8163439631462097e-01 -3.7669578194618225e-01</leafValues></_>
        <_>
          <internalNodes>
            0 -1 240 -1.0785793419927359e-03</internalNodes>
          <leafValues>
            -4.2062917351722717e-01 1.9268156588077545e-01</leafValues></_>
        <_>
          <internalNodes>
            0 -1 284 -1.2386603653430939e-01</internalNodes>
          <leafValues>
            -6.4111280441284180e-01 1.0542445629835129e-01</leafValues></_>
        <_>
          <internalNodes>
            0 -1 115 1.7323744297027588e-01</internalNodes>
          <leafValues>
            -1.3429942727088928e-01 5.1958096027374268e-01</leafValues></_>
        <_>
          <internalNodes>
            0 -1 187 2.8011875692754984e-03</internalNodes>
          <leafValues>
            -1.8291845917701721e-01 4.2130514979362488e-01</leafValues></_>
        <_>
          <internalNodes>
            0 -1 36 -2.8234450146555901e-02</internalNodes>
          <leafValues>
            4.4383740425109863e-01 -1.3648894429206848e-01</leafValues></_>
        <_>
          <internalNodes>
            0 -1 173 -2.6677759364247322e-02</internalNodes>
          <leafValues>
            -6.5258604288101196e-01 7.6446421444416046e-02</leafValues></_>
        <_>
          <internalNodes>
            0 -1 303 5.5075783166103065e-05</internalNodes>
          <leafValues>
            1.5584407746791840e-01 -4.4247424602508545e-01</leafValues></_>
        <_>
          <internalNodes>
            0 -1 55 -8.8119339197874069e-03</internalNodes>
          <leafValues>
            3.3220455050468445e-01 -1.9130375981330872e-01</leafValues></_>
        <_>
          <internalNodes>
            0 -1 209 2.3088254965841770e-04</internalNodes>
          <leafValues>
            2.5109434127807617e-01 -2.3231996595859528e-01</leafValues></_>
        <_>
          <internalNodes>
            0 -1 279 -1.0518745511944871e-05</internalNodes>
          <leafValues>
            1.7497332394123077e-01 -3.1440049409866333e-01</leafValues></_>
        <_>
          <internalNodes>
            0 -1 243 -9.0673076920211315e-04</internalNodes>
          <leafValues>
            -3.6584886908531189e-01 1.8877808749675751e-01</leafValues></_>
        <_>
          <internalNodes>
            0 -1 285 -1.6277052462100983e-02</internalNodes>
          <leafValues>
            -9.6549248695373535e-01 5.0110600888729095e-02</leafValues></_>
        <_>
          <internalNodes>
            0 -1 248 4.8146046698093414e-02</internalNodes>
          <leafValues>
            8.2740768790245056e-02 -5.2845096588134766e-01</leafValues></_>
        <_>
          <internalNodes>
            0 -1 251 2.6147643802687526e-04</internalNodes>
          <leafValues>
            -2.3832605779170990e-01 2.5078597664833069e-01</leafValues></_>
        <_>
          <internalNodes>
            0 -1 40 -7.1971878409385681e-02</internalNodes>
          <leafValues>
            3.3863967657089233e-01 -1.8522281944751740e-01</leafValues></_>
        <_>
          <internalNodes>
            0 -1 247 -4.2447645682841539e-04</internalNodes>
          <leafValues>
            2.4916121363639832e-01 -2.3174522817134857e-01</leafValues></_>
        <_>
          <internalNodes>
            0 -1 167 -4.8393959878012538e-04</internalNodes>
          <leafValues>
            -3.7992346286773682e-01 1.4430207014083862e-01</leafValues></_>
        <_>
          <internalNodes>
            0 -1 193 -5.4342155635822564e-05</internalNodes>
          <leafValues>
            2.5617399811744690e-01 -2.1772660315036774e-01</leafValues></_></weakClassifiers></_>
    <!-- stage 12 -->
    <_>
      <maxWeakCount>20</maxWeakCount>
      <stageThreshold>-1.3692871332168579e+00</stageThreshold>
      <weakClassifiers>
        <_>
          <internalNodes>
            0 -1 186 8.3469636738300323e-03</internalNodes>
          <leafValues>
            -6.5461850166320801e-01 5.2910051308572292e-03</leafValues></_>
        <_>
          <internalNodes>
            0 -1 110 -2.8206530958414078e-02</internalNodes>
          <leafValues>
            3.5585173964500427e-01 -2.8996360301971436e-01</leafValues></_>
        <_>
          <internalNodes>
            0 -1 257 -1.0314988321624696e-04</internalNodes>
          <leafValues>
            -6.0710561275482178e-01 1.4629277586936951e-01</leafValues></_>
        <_>
          <internalNodes>
            0 -1 0 -1.1419912334531546e-03</internalNodes>
          <leafValues>
            -4.5432645082473755e-01 1.8043446540832520e-01</leafValues></_>
        <_>
          <internalNodes>
            0 -1 142 3.6818957887589931e-03</internalNodes>
          <leafValues>
            -3.4783253073692322e-01 1.8702316284179688e-01</leafValues></_>
        <_>
          <internalNodes>
            0 -1 80 3.6444060970097780e-03</internalNodes>
          <leafValues>
            -1.9663509726524353e-01 3.7865033745765686e-01</leafValues></_>
        <_>
          <internalNodes>
            0 -1 196 -1.9578522187657654e-04</internalNodes>
          <leafValues>
            1.9218657910823822e-01 -3.1126558780670166e-01</leafValues></_>
        <_>
          <internalNodes>
            0 -1 273 -2.5482763885520399e-04</internalNodes>
          <leafValues>
            -4.5495736598968506e-01 1.5903256833553314e-01</leafValues></_>
        <_>
          <internalNodes>
            0 -1 4 5.2704755216836929e-04</internalNodes>
          <leafValues>
            5.8470841497182846e-02 -6.1695110797882080e-01</leafValues></_>
        <_>
          <internalNodes>
            0 -1 245 -1.3402898330241442e-03</internalNodes>
          <leafValues>
            3.2486149668693542e-01 -1.7095933854579926e-01</leafValues></_>
        <_>
          <internalNodes>
            0 -1 358 2.8602429665625095e-03</internalNodes>
          <leafValues>
            1.6793899238109589e-01 -3.4477972984313965e-01</leafValues></_>
        <_>
          <internalNodes>
            0 -1 128 8.8972672820091248e-02</internalNodes>
          <leafValues>
            -3.0981776118278503e-01 1.7309814691543579e-01</leafValues></_>
        <_>
          <internalNodes>
            0 -1 160 -3.8789905607700348e-02</internalNodes>
          <leafValues>
            5.1722818613052368e-01 -1.2140063196420670e-01</leafValues></_>
        <_>
          <internalNodes>
            0 -1 21 1.8725453410297632e-03</internalNodes>
          <leafValues>
            -2.8693965077400208e-01 2.5319144129753113e-01</leafValues></_>
        <_>
          <internalNodes>
            0 -1 252 5.0016745924949646e-02</internalNodes>
          <leafValues>
            9.6068084239959717e-02 -7.0661610364913940e-01</leafValues></_>
        <_>
          <internalNodes>
            0 -1 275 -5.0000919145531952e-05</internalNodes>
          <leafValues>
            1.3191941380500793e-01 -3.8222768902778625e-01</leafValues></_>
        <_>
          <internalNodes>
            0 -1 353 -4.9334797949995846e-05</internalNodes>
          <leafValues>
            2.0157547295093536e-01 -2.7511903643608093e-01</leafValues></_>
        <_>
          <internalNodes>
            0 -1 137 1.4480884419754148e-04</internalNodes>
          <leafValues>
            2.0728786289691925e-01 -2.6817184686660767e-01</leafValues></_>
        <_>
          <internalNodes>
            0 -1 17 4.0921784238889813e-04</internalNodes>
          <leafValues>
            1.5119118988513947e-01 -4.2792302370071411e-01</leafValues></_>
        <_>
          <internalNodes>
            0 -1 93 -2.3104973137378693e-02</internalNodes>
          <leafValues>
            6.5936416387557983e-01 -8.6005099117755890e-02</leafValues></_></weakClassifiers></_>
    <!-- stage 13 -->
    <_>
      <maxWeakCount>21</maxWeakCount>
      <stageThreshold>-1.3987301588058472e+00</stageThreshold>
      <weakClassifiers>
        <_>
          <internalNodes>
            0 -1 90 1.0266940295696259e-01</internalNodes>
          <leafValues>
            -5.7526445388793945e-01 1.1281070858240128e-01</leafValues></_>
        <_>
          <internalNodes>
            0 -1 210 -4.0666135028004646e-03</internalNodes>
          <leafValues>
            3.6135122179985046e-01 -2.9288452863693237e-01</leafValues></_>
        <_>
          <internalNodes>
            0 -1 342 -2.3675415664911270e-02</internalNodes>
          <leafValues>
            4.4394010305404663e-01 -1.5152853727340698e-01</leafValues></_>
        <_>
          <internalNodes>
            0 -1 261 4.2968102206941694e-05</internalNodes>
          <leafValues>
            1.5897330641746521e-01 -3.7531405687332153e-01</leafValues></_>
        <_>
          <internalNodes>
            0 -1 261 -1.0033613943960518e-04</internalNodes>
          <leafValues>
            -4.2281401157379150e-01 1.9357782602310181e-01</leafValues></_>
        <_>
          <internalNodes>
            0 -1 314 -1.4273938722908497e-03</internalNodes>
          <leafValues>
            1.3262619078159332e-01 -3.8799375295639038e-01</leafValues></_>
        <_>
          <internalNodes>
            0 -1 5 -1.9314420223236084e-01</internalNodes>
          <leafValues>
            4.5611217617988586e-01 -1.4659470319747925e-01</leafValues></_>
        <_>
          <internalNodes>
            0 -1 56 6.1503306031227112e-02</internalNodes>
          <leafValues>
            -2.4041697382926941e-01 2.4892005324363708e-01</leafValues></_>
        <_>
          <internalNodes>
            0 -1 23 5.4116021841764450e-02</internalNodes>
          <leafValues>
            1.1779431253671646e-01 -4.3507498502731323e-01</leafValues></_>
        <_>
          <internalNodes>
            0 -1 6 -2.0999558269977570e-02</internalNodes>
          <leafValues>
            3.0669432878494263e-01 -1.7616418004035950e-01</leafValues></_>
        <_>
          <internalNodes>
            0 -1 309 9.7772150184027851e-05</internalNodes>
          <leafValues>
            -1.6556270420551300e-01 3.3429500460624695e-01</leafValues></_>
        <_>
          <internalNodes>
            0 -1 43 1.4335191808640957e-03</internalNodes>
          <leafValues>
            -2.3535227775573730e-01 2.7432647347450256e-01</leafValues></_>
        <_>
          <internalNodes>
            0 -1 108 -4.6187802217900753e-03</internalNodes>
          <leafValues>
            3.9207771420478821e-01 -1.5498615801334381e-01</leafValues></_>
        <_>
          <internalNodes>
            0 -1 47 -4.4854677980765700e-05</internalNodes>
          <leafValues>
            -3.4205162525177002e-01 1.7338120937347412e-01</leafValues></_>
        <_>
          <internalNodes>
            0 -1 9 6.5364409238100052e-04</internalNodes>
          <leafValues>
            7.1778908371925354e-02 -6.6493034362792969e-01</leafValues></_>
        <_>
          <internalNodes>
            0 -1 94 1.0158780496567488e-03</internalNodes>
          <leafValues>
            -1.5869091451168060e-01 3.5022470355033875e-01</leafValues></_>
        <_>
          <internalNodes>
            0 -1 224 1.7068959772586823e-02</internalNodes>
          <leafValues>
            -1.8464614450931549e-01 3.1877973675727844e-01</leafValues></_>
        <_>
          <internalNodes>
            0 -1 12 5.0643622875213623e-02</internalNodes>
          <leafValues>
            8.8316887617111206e-02 -6.1226141452789307e-01</leafValues></_>
        <_>
          <internalNodes>
            0 -1 280 -1.2997630983591080e-04</internalNodes>
          <leafValues>
            1.2196000665426254e-01 -3.9673775434494019e-01</leafValues></_>
        <_>
          <internalNodes>
            0 -1 281 -1.5655998140573502e-03</internalNodes>
          <leafValues>
            -4.0151569247245789e-01 1.6642776131629944e-01</leafValues></_>
        <_>
          <internalNodes>
            0 -1 293 1.1534710938576609e-04</internalNodes>
          <leafValues>
            -3.1862393021583557e-01 1.8291796743869781e-01</leafValues></_></weakClassifiers></_>
    <!-- stage 14 -->
    <_>
      <maxWeakCount>23</maxWeakCount>
      <stageThreshold>-1.4002953767776489e+00</stageThreshold>
      <weakClassifiers>
        <_>
          <internalNodes>
            0 -1 135 4.3819129467010498e-02</internalNodes>
          <leafValues>
            -5.4057973623275757e-01 2.6344084739685059e-01</leafValues></_>
        <_>
          <internalNodes>
            0 -1 301 -8.0525707744527608e-05</internalNodes>
          <leafValues>
            -4.1984042525291443e-01 1.3297429680824280e-01</leafValues></_>
        <_>
          <internalNodes>
            0 -1 278 -2.8850376111222431e-05</internalNodes>
          <leafValues>
            1.6554710268974304e-01 -3.9539417624473572e-01</leafValues></_>
        <_>
          <internalNodes>
            0 -1 242 -6.8865006323903799e-04</internalNodes>
          <leafValues>
            -2.8587356209754944e-01 2.4585302174091339e-01</leafValues></_>
        <_>
          <internalNodes>
            0 -1 233 -1.1323865692247637e-05</internalNodes>
          <leafValues>
            2.5430685281753540e-01 -2.8135159611701965e-01</leafValues></_>
        <_>
          <internalNodes>
            0 -1 205 1.1857374374812935e-05</internalNodes>
          <leafValues>
            -3.9202916622161865e-01 1.9838787615299225e-01</leafValues></_>
        <_>
          <internalNodes>
            0 -1 236 6.3216517446562648e-05</internalNodes>
          <leafValues>
            8.4565691649913788e-02 -4.2760938405990601e-01</leafValues></_>
        <_>
          <internalNodes>
            0 -1 292 -2.7247326215729117e-05</internalNodes>
          <leafValues>
            3.2511880993843079e-01 -2.1321350336074829e-01</leafValues></_>
        <_>
          <internalNodes>
            0 -1 195 8.7867630645632744e-03</internalNodes>
          <leafValues>
            -2.0165088772773743e-01 3.0260235071182251e-01</leafValues></_>
        <_>
          <internalNodes>
            0 -1 127 5.5736587382853031e-03</internalNodes>
          <leafValues>
            -1.4069278538227081e-01 4.4596973061561584e-01</leafValues></_>
        <_>
          <internalNodes>
            0 -1 350 4.8559438437223434e-04</internalNodes>
          <leafValues>
            -1.7697404325008392e-01 3.0679586529731750e-01</leafValues></_>
        <_>
          <internalNodes>
            0 -1 306 -1.0092573938891292e-04</internalNodes>
          <leafValues>
            -2.8783279657363892e-01 1.8687225878238678e-01</leafValues></_>
        <_>
          <internalNodes>
            0 -1 317 -2.3339722247328609e-05</internalNodes>
          <leafValues>
            2.2156894207000732e-01 -2.8451600670814514e-01</leafValues></_>
        <_>
          <internalNodes>
            0 -1 41 -9.7040764987468719e-02</internalNodes>
          <leafValues>
            6.6380298137664795e-01 -9.8141908645629883e-02</leafValues></_>
        <_>
          <internalNodes>
            0 -1 141 2.3377269506454468e-02</internalNodes>
          <leafValues>
            -2.4125511944293976e-01 2.3425501585006714e-01</leafValues></_>
        <_>
          <internalNodes>
            0 -1 288 4.9696329981088638e-02</internalNodes>
          <leafValues>
            8.7375417351722717e-02 -6.8514627218246460e-01</leafValues></_>
        <_>
          <internalNodes>
            0 -1 119 -9.5620453357696533e-03</internalNodes>
          <leafValues>
            2.7918526530265808e-01 -1.8490083515644073e-01</leafValues></_>
        <_>
          <internalNodes>
            0 -1 315 1.0214285925030708e-02</internalNodes>
          <leafValues>
            -2.5204709172248840e-01 2.4304403364658356e-01</leafValues></_>
        <_>
          <internalNodes>
            0 -1 64 -4.1974287480115891e-02</internalNodes>
          <leafValues>
            -8.0113440752029419e-01 4.1860152035951614e-02</leafValues></_>
        <_>
          <internalNodes>
            0 -1 307 -2.4208398826885968e-05</internalNodes>
          <leafValues>
            1.8037851154804230e-01 -2.6192635297775269e-01</leafValues></_>
        <_>
          <internalNodes>
            0 -1 298 -8.2725416868925095e-03</internalNodes>
          <leafValues>
            4.4427436590194702e-01 -1.2254515290260315e-01</leafValues></_>
        <_>
          <internalNodes>
            0 -1 351 3.5364046925678849e-04</internalNodes>
          <leafValues>
            1.2610760331153870e-01 -4.0574893355369568e-01</leafValues></_>
        <_>
          <internalNodes>
            0 -1 73 -1.8941149115562439e-02</internalNodes>
          <leafValues>
            6.1275571584701538e-01 -8.7923437356948853e-02</leafValues></_></weakClassifiers></_>
    <!-- stage 15 -->
    <_>
      <maxWeakCount>27</maxWeakCount>
      <stageThreshold>-1.4025539159774780e+00</stageThreshold>
      <weakClassifiers>
        <_>
          <internalNodes>
            0 -1 190 3.0164001509547234e-03</internalNodes>
          <leafValues>
            -6.3104611635208130e-01 -1.0081112384796143e-01</leafValues></_>
        <_>
          <internalNodes>
            0 -1 107 5.7425826787948608e-02</internalNodes>
          <leafValues>
            -2.5208845734596252e-01 3.8177394866943359e-01</leafValues></_>
        <_>
          <internalNodes>
            0 -1 328 -1.5546911163255572e-04</internalNodes>
          <leafValues>
            -3.6302933096885681e-01 1.8357288837432861e-01</leafValues></_>
        <_>
          <internalNodes>
            0 -1 217 -3.0231665819883347e-02</internalNodes>
          <leafValues>
            2.6670458912849426e-01 -2.4579718708992004e-01</leafValues></_>
        <_>
          <internalNodes>
            0 -1 170 2.3943435400724411e-02</internalNodes>
          <leafValues>
            -1.3219106197357178e-01 5.3414011001586914e-01</leafValues></_>
        <_>
          <internalNodes>
            0 -1 61 -4.8271603882312775e-03</internalNodes>
          <leafValues>
            3.0161219835281372e-01 -1.7145001888275146e-01</leafValues></_>
        <_>
          <internalNodes>
            0 -1 272 -2.0670157391577959e-04</internalNodes>
          <leafValues>
            1.6540506482124329e-01 -3.2603976130485535e-01</leafValues></_>
        <_>
          <internalNodes>
            0 -1 319 -1.9275149679742754e-04</internalNodes>
          <leafValues>
            -4.2562243342399597e-01 1.5466213226318359e-01</leafValues></_>
        <_>
          <internalNodes>
            0 -1 169 -2.3248898796737194e-03</internalNodes>
          <leafValues>
            -3.3287069201469421e-01 1.4903026819229126e-01</leafValues></_>
        <_>
          <internalNodes>
            0 -1 140 8.6448013782501221e-02</internalNodes>
          <leafValues>
            7.6326020061969757e-02 -5.8750206232070923e-01</leafValues></_>
        <_>
          <internalNodes>
            0 -1 219 3.5797189921140671e-03</internalNodes>
          <leafValues>
            -4.1054409742355347e-01 1.1481150239706039e-01</leafValues></_>
        <_>
          <internalNodes>
            0 -1 299 -2.5754567468538880e-04</internalNodes>
          <leafValues>
            -3.6128401756286621e-01 1.4005994796752930e-01</leafValues></_>
        <_>
          <internalNodes>
            0 -1 166 -2.2000233002472669e-05</internalNodes>
          <leafValues>
            2.0485402643680573e-01 -2.8686428070068359e-01</leafValues></_>
        <_>
          <internalNodes>
            0 -1 204 -1.0311864571121987e-05</internalNodes>
          <leafValues>
            2.7569919824600220e-01 -2.3037637770175934e-01</leafValues></_>
        <_>
          <internalNodes>
            0 -1 106 6.3027173746377230e-04</internalNodes>
          <leafValues>
            -1.8430891633033752e-01 3.0185458064079285e-01</leafValues></_>
        <_>
          <internalNodes>
            0 -1 212 -1.5665318351238966e-03</internalNodes>
          <leafValues>
            -3.6882853507995605e-01 1.5394337475299835e-01</leafValues></_>
        <_>
          <internalNodes>
            0 -1 337 -1.2286653742194176e-02</internalNodes>
          <leafValues>
            6.5938276052474976e-01 -9.8713882267475128e-02</leafValues></_>
        <_>
          <internalNodes>
            0 -1 271 -9.3135219067335129e-03</internalNodes>
          <leafValues>
            2.2043049335479736e-01 -2.8598833084106445e-01</leafValues></_>
        <_>
          <internalNodes>
            0 -1 120 -2.2745847702026367e-02</internalNodes>
          <leafValues>
            3.5515701770782471e-01 -1.5528979897499084e-01</leafValues></_>
        <_>
          <internalNodes>
            0 -1 178 1.2133290991187096e-02</internalNodes>
          <leafValues>
            -2.5629356503486633e-01 2.1747961640357971e-01</leafValues></_>
        <_>
          <internalNodes>
            0 -1 131 -2.1852582693099976e-02</internalNodes>
          <leafValues>
            -7.9101246595382690e-01 5.9195172041654587e-02</leafValues></_>
        <_>
          <internalNodes>
            0 -1 179 6.0451356694102287e-03</internalNodes>
          <leafValues>
            -1.4075154066085815e-01 3.5461738705635071e-01</leafValues></_>
        <_>
          <internalNodes>
            0 -1 345 -5.3125079721212387e-03</internalNodes>
          <leafValues>
            -7.8663885593414307e-01 7.3566824197769165e-02</leafValues></_>
        <_>
          <internalNodes>
            0 -1 312 2.7011452242732048e-02</internalNodes>
          <leafValues>
            3.7768140435218811e-02 -7.1938055753707886e-01</leafValues></_>
        <_>
          <internalNodes>
            0 -1 28 9.9949017167091370e-02</internalNodes>
          <leafValues>
            5.4654102772474289e-02 -6.1406803131103516e-01</leafValues></_>
        <_>
          <internalNodes>
            0 -1 349 1.0077448561787605e-02</internalNodes>
          <leafValues>
            -1.1099839210510254e-01 4.5978721976280212e-01</leafValues></_>
        <_>
          <internalNodes>
            0 -1 54 8.4551237523555756e-03</internalNodes>
          <leafValues>
            7.6871931552886963e-02 -7.0966368913650513e-01</leafValues></_></weakClassifiers></_>
    <!-- stage 16 -->
    <_>
      <maxWeakCount>24</maxWeakCount>
      <stageThreshold>-1.2370063066482544e+00</stageThreshold>
      <weakClassifiers>
        <_>
          <internalNodes>
            0 -1 33 -4.0485404431819916e-02</internalNodes>
          <leafValues>
            1.8435753881931305e-01 -5.1219511032104492e-01</leafValues></_>
        <_>
          <internalNodes>
            0 -1 320 -1.9611557945609093e-04</internalNodes>
          <leafValues>
            -3.2972154021263123e-01 2.1879369020462036e-01</leafValues></_>
        <_>
          <internalNodes>
            0 -1 304 -4.4283820898272097e-05</internalNodes>
          <leafValues>
            1.4654791355133057e-01 -4.9839895963668823e-01</leafValues></_>
        <_>
          <internalNodes>
            0 -1 232 -6.8178553192410618e-05</internalNodes>
          <leafValues>
            -4.5515829324722290e-01 1.2847924232482910e-01</leafValues></_>
        <_>
          <internalNodes>
            0 -1 76 -4.4253841042518616e-02</internalNodes>
          <leafValues>
            3.6814162135124207e-01 -1.4146128296852112e-01</leafValues></_>
        <_>
          <internalNodes>
            0 -1 157 3.8272906094789505e-03</internalNodes>
          <leafValues>
            -4.7071772813796997e-01 1.4786994457244873e-01</leafValues></_>
        <_>
          <internalNodes>
            0 -1 264 -4.0787475882098079e-04</internalNodes>
          <leafValues>
            -2.9452675580978394e-01 1.9426871836185455e-01</leafValues></_>
        <_>
          <internalNodes>
            0 -1 246 -5.2425987087190151e-03</internalNodes>
          <leafValues>
            -6.1504298448562622e-01 9.0974658727645874e-02</leafValues></_>
        <_>
          <internalNodes>
            0 -1 1 1.7764501273632050e-01</internalNodes>
          <leafValues>
            6.7709207534790039e-02 -6.5704709291458130e-01</leafValues></_>
        <_>
          <internalNodes>
            0 -1 123 -1.7151124775409698e-02</internalNodes>
          <leafValues>
            -5.4446732997894287e-01 7.8813180327415466e-02</leafValues></_>
        <_>
          <internalNodes>
            0 -1 161 -2.6256874203681946e-02</internalNodes>
          <leafValues>
            2.5470951199531555e-01 -1.7293341457843781e-01</leafValues></_>
        <_>
          <internalNodes>
            0 -1 176 1.0299324244260788e-01</internalNodes>
          <leafValues>
            -2.2766785323619843e-01 2.8204575181007385e-01</leafValues></_>
        <_>
          <internalNodes>
            0 -1 153 1.5161710791289806e-02</internalNodes>
          <leafValues>
            -1.5069895982742310e-01 3.6243638396263123e-01</leafValues></_>
        <_>
          <internalNodes>
            0 -1 218 6.7667737603187561e-02</internalNodes>
          <leafValues>
            7.5604319572448730e-02 -6.9086700677871704e-01</leafValues></_>
        <_>
          <internalNodes>
            0 -1 361 5.9095636243000627e-04</internalNodes>
          <leafValues>
            1.2078088521957397e-01 -3.5040369629859924e-01</leafValues></_>
        <_>
          <internalNodes>
            0 -1 267 -6.3258346926886588e-05</internalNodes>
          <leafValues>
            -4.5752850174903870e-01 1.0550212860107422e-01</leafValues></_>
        <_>
          <internalNodes>
            0 -1 206 -4.5772907469654456e-05</internalNodes>
          <leafValues>
            2.1103432774543762e-01 -2.1327915787696838e-01</leafValues></_>
        <_>
          <internalNodes>
            0 -1 201 -1.1721656846930273e-05</internalNodes>
          <leafValues>
            1.7164978384971619e-01 -2.5125446915626526e-01</leafValues></_>
        <_>
          <internalNodes>
            0 -1 239 -4.2903656139969826e-04</internalNodes>
          <leafValues>
            -3.2379031181335449e-01 1.5593594312667847e-01</leafValues></_>
        <_>
          <internalNodes>
            0 -1 258 -2.6145989977521822e-05</internalNodes>
          <leafValues>
            2.8308618068695068e-01 -2.3128204047679901e-01</leafValues></_>
        <_>
          <internalNodes>
            0 -1 180 1.6540216282010078e-02</internalNodes>
          <leafValues>
            -1.6296680271625519e-01 3.7146776914596558e-01</leafValues></_>
        <_>
          <internalNodes>
            0 -1 241 -2.3536777007393539e-05</internalNodes>
          <leafValues>
            2.2109273076057434e-01 -2.5025001168251038e-01</leafValues></_>
        <_>
          <internalNodes>
            0 -1 184 3.6664314568042755e-02</internalNodes>
          <leafValues>
            -1.2506215274333954e-01 4.0121698379516602e-01</leafValues></_>
        <_>
          <internalNodes>
            0 -1 297 -5.2573170512914658e-02</internalNodes>
          <leafValues>
            6.3513106107711792e-01 -6.5169118344783783e-02</leafValues></_></weakClassifiers></_>
    <!-- stage 17 -->
    <_>
      <maxWeakCount>25</maxWeakCount>
      <stageThreshold>-1.2740914821624756e+00</stageThreshold>
      <weakClassifiers>
        <_>
          <internalNodes>
            0 -1 332 4.1741263121366501e-03</internalNodes>
          <leafValues>
            -5.3026986122131348e-01 2.0734907686710358e-01</leafValues></_>
        <_>
          <internalNodes>
            0 -1 163 3.2515697181224823e-02</internalNodes>
          <leafValues>
            -2.8707474470138550e-01 2.6258805394172668e-01</leafValues></_>
        <_>
          <internalNodes>
            0 -1 49 3.3797524869441986e-02</internalNodes>
          <leafValues>
            -3.8175666332244873e-01 1.8362468481063843e-01</leafValues></_>
        <_>
          <internalNodes>
            0 -1 296 -5.6846140068955719e-05</internalNodes>
          <leafValues>
            2.3239728808403015e-01 -2.9271519184112549e-01</leafValues></_>
        <_>
          <internalNodes>
            0 -1 308 -2.4677603505551815e-04</internalNodes>
          <leafValues>
            -3.0541244149208069e-01 1.6742503643035889e-01</leafValues></_>
        <_>
          <internalNodes>
            0 -1 222 -1.2885961681604385e-02</internalNodes>
          <leafValues>
            4.6508556604385376e-01 -1.0187103599309921e-01</leafValues></_>
        <_>
          <internalNodes>
            0 -1 260 -1.0333674435969442e-04</internalNodes>
          <leafValues>
            1.1745850741863251e-01 -5.2784347534179688e-01</leafValues></_>
        <_>
          <internalNodes>
            0 -1 198 1.8522699247114360e-04</internalNodes>
          <leafValues>
            2.2106222808361053e-01 -2.3197473585605621e-01</leafValues></_>
        <_>
          <internalNodes>
            0 -1 46 3.4262865781784058e-02</internalNodes>
          <leafValues>
            -7.2564341127872467e-02 7.7467185258865356e-01</leafValues></_>
        <_>
          <internalNodes>
            0 -1 311 1.5646716579794884e-02</internalNodes>
          <leafValues>
            -1.6777700185775757e-01 3.0384987592697144e-01</leafValues></_>
        <_>
          <internalNodes>
            0 -1 220 8.3593610906973481e-04</internalNodes>
          <leafValues>
            -3.0495789647102356e-01 1.5403290092945099e-01</leafValues></_>
        <_>
          <internalNodes>
            0 -1 174 1.8069833517074585e-01</internalNodes>
          <leafValues>
            8.8553793728351593e-02 -5.8447247743606567e-01</leafValues></_>
        <_>
          <internalNodes>
            0 -1 327 5.1728375256061554e-03</internalNodes>
          <leafValues>
            -2.4608266353607178e-01 2.1131601929664612e-01</leafValues></_>
        <_>
          <internalNodes>
            0 -1 294 -5.6717649567872286e-04</internalNodes>
          <leafValues>
            -4.8548036813735962e-01 9.6618995070457458e-02</leafValues></_>
        <_>
          <internalNodes>
            0 -1 259 -1.2585311196744442e-04</internalNodes>
          <leafValues>
            2.9999294877052307e-01 -1.8754753470420837e-01</leafValues></_>
        <_>
          <internalNodes>
            0 -1 265 -1.2377720559015870e-03</internalNodes>
          <leafValues>
            -3.0325144529342651e-01 2.0056632161140442e-01</leafValues></_>
        <_>
          <internalNodes>
            0 -1 256 1.0630536824464798e-02</internalNodes>
          <leafValues>
            -2.5262573361396790e-01 2.2816196084022522e-01</leafValues></_>
        <_>
          <internalNodes>
            0 -1 183 2.1373409777879715e-02</internalNodes>
          <leafValues>
            -1.6882565617561340e-01 4.1227480769157410e-01</leafValues></_>
        <_>
          <internalNodes>
            0 -1 346 1.1430894955992699e-02</internalNodes>
          <leafValues>
            8.2348898053169250e-02 -7.4815797805786133e-01</leafValues></_>
        <_>
          <internalNodes>
            0 -1 45 -1.2711241841316223e-02</internalNodes>
          <leafValues>
            -4.7602051496505737e-01 8.8583298027515411e-02</leafValues></_>
        <_>
          <internalNodes>
            0 -1 44 1.8672458827495575e-04</internalNodes>
          <leafValues>
            -2.0323468744754791e-01 2.2886799275875092e-01</leafValues></_>
        <_>
          <internalNodes>
            0 -1 334 -3.2166898017749190e-04</internalNodes>
          <leafValues>
            3.2689717411994934e-01 -1.5015539526939392e-01</leafValues></_>
        <_>
          <internalNodes>
            0 -1 86 -5.4200002923607826e-03</internalNodes>
          <leafValues>
            3.4641987085342407e-01 -1.4077563583850861e-01</leafValues></_>
        <_>
          <internalNodes>
            0 -1 67 5.5022640153765678e-03</internalNodes>
          <leafValues>
            -1.6086325049400330e-01 3.0895093083381653e-01</leafValues></_>
        <_>
          <internalNodes>
            0 -1 38 -1.3899600133299828e-02</internalNodes>
          <leafValues>
            -8.6239522695541382e-01 5.3534619510173798e-02</leafValues></_></weakClassifiers></_>
    <!-- stage 18 -->
    <_>
      <maxWeakCount>25</maxWeakCount>
      <stageThreshold>-1.2766029834747314e+00</stageThreshold>
      <weakClassifiers>
        <_>
          <internalNodes>
            0 -1 19 -1.7589937895536423e-02</internalNodes>
          <leafValues>
            7.0992368459701538e-01 -4.5712521672248840e-01</leafValues></_>
        <_>
          <internalNodes>
            0 -1 59 1.3653350993990898e-02</internalNodes>
          <leafValues>
            -3.6259105801582336e-01 1.6996970772743225e-01</leafValues></_>
        <_>
          <internalNodes>
            0 -1 340 -2.5551857426762581e-02</internalNodes>
          <leafValues>
            4.1454419493675232e-01 -1.3784141838550568e-01</leafValues></_>
        <_>
          <internalNodes>
            0 -1 10 -9.4171818345785141e-03</internalNodes>
          <leafValues>
            2.3541603982448578e-01 -2.1411366760730743e-01</leafValues></_>
        <_>
          <internalNodes>
            0 -1 162 -1.1182557500433177e-04</internalNodes>
          <leafValues>
            -4.8672342300415039e-01 1.1667174100875854e-01</leafValues></_>
        <_>
          <internalNodes>
            0 -1 290 -1.1366647668182850e-03</internalNodes>
          <leafValues>
            2.1806587278842926e-01 -2.2108082473278046e-01</leafValues></_>
        <_>
          <internalNodes>
            0 -1 357 6.9176123361103237e-05</internalNodes>
          <leafValues>
            1.4815318584442139e-01 -3.1559646129608154e-01</leafValues></_>
        <_>
          <internalNodes>
            0 -1 50 9.5950901508331299e-02</internalNodes>
          <leafValues>
            -4.8997499048709869e-02 7.1232199668884277e-01</leafValues></_>
        <_>
          <internalNodes>
            0 -1 138 -3.4172444138675928e-03</internalNodes>
          <leafValues>
            1.9222714006900787e-01 -3.0757218599319458e-01</leafValues></_>
        <_>
          <internalNodes>
            0 -1 79 1.2511181645095348e-02</internalNodes>
          <leafValues>
            -8.3403833210468292e-02 6.5842097997665405e-01</leafValues></_>
        <_>
          <internalNodes>
            0 -1 305 -2.5302922585979104e-04</internalNodes>
          <leafValues>
            -3.1674715876579285e-01 1.4613135159015656e-01</leafValues></_>
        <_>
          <internalNodes>
            0 -1 268 -4.7079549403861165e-05</internalNodes>
          <leafValues>
            1.6164973378181458e-01 -3.2798221707344055e-01</leafValues></_>
        <_>
          <internalNodes>
            0 -1 102 -5.0624117255210876e-02</internalNodes>
          <leafValues>
            4.7499799728393555e-01 -1.3530094921588898e-01</leafValues></_>
        <_>
          <internalNodes>
            0 -1 310 1.1254274286329746e-02</internalNodes>
          <leafValues>
            -4.7391068935394287e-01 1.3889220356941223e-01</leafValues></_>
        <_>
          <internalNodes>
            0 -1 77 1.1430236697196960e-01</internalNodes>
          <leafValues>
            6.5857544541358948e-02 -6.3231682777404785e-01</leafValues></_>
        <_>
          <internalNodes>
            0 -1 24 -4.7958962619304657e-02</internalNodes>
          <leafValues>
            -4.7824290394783020e-01 9.3476995825767517e-02</leafValues></_>
        <_>
          <internalNodes>
            0 -1 96 -5.5195521563291550e-03</internalNodes>
          <leafValues>
            4.5506945252418518e-01 -1.1915495246648788e-01</leafValues></_>
        <_>
          <internalNodes>
            0 -1 185 1.9880576059222221e-02</internalNodes>
          <leafValues>
            -1.1528675258159637e-01 4.1768357157707214e-01</leafValues></_>
        <_>
          <internalNodes>
            0 -1 287 2.5441400706768036e-02</internalNodes>
          <leafValues>
            8.7295003235340118e-02 -6.8674951791763306e-01</leafValues></_>
        <_>
          <internalNodes>
            0 -1 347 4.5273462310433388e-03</internalNodes>
          <leafValues>
            -1.1134605854749680e-01 4.8337164521217346e-01</leafValues></_>
        <_>
          <internalNodes>
            0 -1 291 5.7933526113629341e-04</internalNodes>
          <leafValues>
            -1.5417243540287018e-01 3.3686661720275879e-01</leafValues></_>
        <_>
          <internalNodes>
            0 -1 254 -5.7226233184337616e-04</internalNodes>
          <leafValues>
            3.9199957251548767e-01 -1.3002896308898926e-01</leafValues></_>
        <_>
          <internalNodes>
            0 -1 227 -1.0087464470416307e-03</internalNodes>
          <leafValues>
            -5.2129536867141724e-01 9.8304063081741333e-02</leafValues></_>
        <_>
          <internalNodes>
            0 -1 227 -4.6112796553643420e-05</internalNodes>
          <leafValues>
            2.6554399728775024e-01 -1.8553049862384796e-01</leafValues></_>
        <_>
          <internalNodes>
            0 -1 274 -1.0352258686907589e-04</internalNodes>
          <leafValues>
            -3.7203043699264526e-01 1.5411978960037231e-01</leafValues></_></weakClassifiers></_>
    <!-- stage 19 -->
    <_>
      <maxWeakCount>26</maxWeakCount>
      <stageThreshold>-1.2762485742568970e+00</stageThreshold>
      <weakClassifiers>
        <_>
          <internalNodes>
            0 -1 150 -2.6132310740649700e-03</internalNodes>
          <leafValues>
            6.0836501419544220e-02 -5.5464929342269897e-01</leafValues></_>
        <_>
          <internalNodes>
            0 -1 336 -1.0593497194349766e-02</internalNodes>
          <leafValues>
            3.4767356514930725e-01 -2.0937402546405792e-01</leafValues></_>
        <_>
          <internalNodes>
            0 -1 168 3.9244751678779721e-04</internalNodes>
          <leafValues>
            2.3813591897487640e-01 -2.0666067302227020e-01</leafValues></_>
        <_>
          <internalNodes>
            0 -1 200 -1.6165104170795530e-04</internalNodes>
          <leafValues>
            -4.9624103307723999e-01 1.1913169920444489e-01</leafValues></_>
        <_>
          <internalNodes>
            0 -1 199 -2.5711400667205453e-05</internalNodes>
          <leafValues>
            2.8912529349327087e-01 -1.9747376441955566e-01</leafValues></_>
        <_>
          <internalNodes>
            0 -1 72 -9.6942000091075897e-03</internalNodes>
          <leafValues>
            3.9593854546546936e-01 -1.8033488094806671e-01</leafValues></_>
        <_>
          <internalNodes>
            0 -1 211 -4.5394878834486008e-03</internalNodes>
          <leafValues>
            -7.6645034551620483e-01 1.0186952352523804e-01</leafValues></_>
        <_>
          <internalNodes>
            0 -1 322 -1.0469123662915081e-04</internalNodes>
          <leafValues>
            1.5792158246040344e-01 -3.2774475216865540e-01</leafValues></_>
        <_>
          <internalNodes>
            0 -1 207 -6.3250288367271423e-03</internalNodes>
          <leafValues>
            3.9608803391456604e-01 -1.1524458229541779e-01</leafValues></_>
        <_>
          <internalNodes>
            0 -1 74 2.6268716901540756e-03</internalNodes>
          <leafValues>
            -2.2648283839225769e-01 2.0398506522178650e-01</leafValues></_>
        <_>
          <internalNodes>
            0 -1 221 1.2500155717134476e-03</internalNodes>
          <leafValues>
            -2.0414361357688904e-01 2.6235985755920410e-01</leafValues></_>
        <_>
          <internalNodes>
            0 -1 53 2.3773979395627975e-02</internalNodes>
          <leafValues>
            -1.1932366341352463e-01 6.2692803144454956e-01</leafValues></_>
        <_>
          <internalNodes>
            0 -1 223 -4.0155817987397313e-04</internalNodes>
          <leafValues>
            3.5823494195938110e-01 -1.3604548573493958e-01</leafValues></_>
        <_>
          <internalNodes>
            0 -1 177 -1.4807600528001785e-02</internalNodes>
          <leafValues>
            -3.3171740174293518e-01 1.7029517889022827e-01</leafValues></_>
        <_>
          <internalNodes>
            0 -1 117 1.3218058273196220e-02</internalNodes>
          <leafValues>
            -5.6287980079650879e-01 7.6906412839889526e-02</leafValues></_>
        <_>
          <internalNodes>
            0 -1 146 1.2542815878987312e-02</internalNodes>
          <leafValues>
            9.1644823551177979e-02 -5.0484496355056763e-01</leafValues></_>
        <_>
          <internalNodes>
            0 -1 231 9.0484754764474928e-05</internalNodes>
          <leafValues>
            1.3331107795238495e-01 -3.3627465367317200e-01</leafValues></_>
        <_>
          <internalNodes>
            0 -1 98 -2.2298390977084637e-03</internalNodes>
          <leafValues>
            1.7268416285514832e-01 -2.7442920207977295e-01</leafValues></_>
        <_>
          <internalNodes>
            0 -1 229 -1.1787450057454407e-04</internalNodes>
          <leafValues>
            -4.7508725523948669e-01 1.0330062359571457e-01</leafValues></_>
        <_>
          <internalNodes>
            0 -1 105 1.6872707009315491e-01</internalNodes>
          <leafValues>
            -8.3909809589385986e-02 6.3447183370590210e-01</leafValues></_>
        <_>
          <internalNodes>
            0 -1 215 6.9766691885888577e-03</internalNodes>
          <leafValues>
            -9.3500874936580658e-02 5.3771144151687622e-01</leafValues></_>
        <_>
          <internalNodes>
            0 -1 266 -4.9741574912331998e-05</internalNodes>
          <leafValues>
            2.2420862317085266e-01 -2.3263575136661530e-01</leafValues></_>
        <_>
          <internalNodes>
            0 -1 88 -1.0937829501926899e-03</internalNodes>
          <leafValues>
            3.9801526069641113e-01 -1.1481504142284393e-01</leafValues></_>
        <_>
          <internalNodes>
            0 -1 88 2.2374829277396202e-03</internalNodes>
          <leafValues>
            -1.0497461259365082e-01 4.9387109279632568e-01</leafValues></_>
        <_>
          <internalNodes>
            0 -1 289 2.7326546609401703e-02</internalNodes>
          <leafValues>
            -1.0369170457124710e-01 4.9351564049720764e-01</leafValues></_>
        <_>
          <internalNodes>
            0 -1 282 -7.1701791603118181e-04</internalNodes>
          <leafValues>
            2.6383906602859497e-01 -1.8358041346073151e-01</leafValues></_></weakClassifiers></_></stages>
  <features>
    <_>
      <rects>
        <_>
          0 0 1 6 -1.</_>
        <_>
          0 3 1 3 2.</_></rects>
      <tilted>0</tilted></_>
    <_>
      <rects>
        <_>
          0 0 14 14 -1.</_>
        <_>
          0 0 7 7 2.</_>
        <_>
          7 7 7 7 2.</_></rects>
      <tilted>0</tilted></_>
    <_>
      <rects>
        <_>
          0 0 16 18 -1.</_>
        <_>
          0 0 8 9 2.</_>
        <_>
          8 9 8 9 2.</_></rects>
      <tilted>0</tilted></_>
    <_>
      <rects>
        <_>
          0 0 24 7 -1.</_>
        <_>
          12 0 12 7 2.</_></rects>
      <tilted>0</tilted></_>
    <_>
      <rects>
        <_>
          0 1 1 2 -1.</_>
        <_>
          0 2 1 1 2.</_></rects>
      <tilted>0</tilted></_>
    <_>
      <rects>
        <_>
          0 2 24 7 -1.</_>
        <_>
          8 2 8 7 3.</_></rects>
      <tilted>0</tilted></_>
    <_>
      <rects>
        <_>
          0 2 14 6 -1.</_>
        <_>
          0 4 14 2 3.</_></rects>
      <tilted>0</tilted></_>
    <_>
      <rects>
        <_>
          0 2 16 12 -1.</_>
        <_>
          0 8 16 6 2.</_></rects>
      <tilted>0</tilted></_>
    <_>
      <rects>
        <_>
          0 3 24 15 -1.</_>
        <_>
          8 3 8 15 3.</_></rects>
      <tilted>0</tilted></_>
    <_>
      <rects>
        <_>
          0 4 1 2 -1.</_>
        <_>
          0 5 1 1 2.</_></rects>
      <tilted>0</tilted></_>
    <_>
      <rects>
        <_>
          0 4 10 2 -1.</_>
        <_>
          5 4 5 2 2.</_></rects>
      <tilted>0</tilted></_>
    <_>
      <rects>
        <_>
          0 5 9 6 -1.</_>
        <_>
          0 8 9 3 2.</_></rects>
      <tilted>0</tilted></_>
    <_>
      <rects>
        <_>
          0 5 24 8 -1.</_>
        <_>
          0 5 12 4 2.</_>
        <_>
          12 9 12 4 2.</_></rects>
      <tilted>0</tilted></_>
    <_>
      <rects>
        <_>
          0 6 1 6 -1.</_>
        <_>
          0 8 1 2 3.</_></rects>
      <tilted>0</tilted></_>
    <_>
      <rects>
        <_>
          0 6 3 6 -1.</_>
        <_>
          0 9 3 3 2.</_></rects>
      <tilted>0</tilted></_>
    <_>
      <rects>
        <_>
          0 6 15 3 -1.</_>
        <_>
          0 7 15 1 3.</_></rects>
      <tilted>0</tilted></_>
    <_>
      <rects>
        <_>
          0 7 24 16 -1.</_>
        <_>
          12 7 12 16 2.</_></rects>
      <tilted>0</tilted></_>
    <_>
      <rects>
        <_>
          0 9 1 4 -1.</_>
        <_>
          0 11 1 2 2.</_></rects>
      <tilted>0</tilted></_>
    <_>
      <rects>
        <_>
          0 9 1 6 -1.</_>
        <_>
          0 12 1 3 2.</_></rects>
      <tilted>0</tilted></_>
    <_>
      <rects>
        <_>
          0 9 2 15 -1.</_>
        <_>
          1 9 1 15 2.</_></rects>
      <tilted>0</tilted></_>
    <_>
      <rects>
        <_>
          0 11 24 1 -1.</_>
        <_>
          8 11 8 1 3.</_></rects>
      <tilted>0</tilted></_>
    <_>
      <rects>
        <_>
          0 12 16 3 -1.</_>
        <_>
          0 13 16 1 3.</_></rects>
      <tilted>0</tilted></_>
    <_>
      <rects>
        <_>
          0 16 24 8 -1.</_>
        <_>
          12 16 12 8 2.</_></rects>
      <tilted>0</tilted></_>
    <_>
      <rects>
        <_>
          0 18 24 6 -1.</_>
        <_>
          12 18 12 6 2.</_></rects>
      <tilted>0</tilted></_>
    <_>
      <rects>
        <_>
          0 21 24 3 -1.</_>
        <_>
          12 21 12 3 2.</_></rects>
      <tilted>0</tilted></_>
    <_>
      <rects>
        <_>
          1 0 2 2 -1.</_>
        <_>
          2 0 1 2 2.</_></rects>
      <tilted>0</tilted></_>
    <_>
      <rects>
        <_>
          1 0 3 2 -1.</_>
        <_>
          2 0 1 2 3.</_></rects>
      <tilted>0</tilted></_>
    <_>
      <rects>
        <_>
          1 0 20 2 -1.</_>
        <_>
          11 0 10 2 2.</_></rects>
      <tilted>0</tilted></_>
    <_>
      <rects>
        <_>
          1 0 20 8 -1.</_>
        <_>
          11 0 10 8 2.</_></rects>
      <tilted>0</tilted></_>
    <_>
      <rects>
        <_>
          1 1 12 10 -1.</_>
        <_>
          1 1 6 5 2.</_>
        <_>
          7 6 6 5 2.</_></rects>
      <tilted>0</tilted></_>
    <_>
      <rects>
        <_>
          1 1 14 12 -1.</_>
        <_>
          1 1 7 6 2.</_>
        <_>
          8 7 7 6 2.</_></rects>
      <tilted>0</tilted></_>
    <_>
      <rects>
        <_>
          1 1 16 16 -1.</_>
        <_>
          1 1 8 8 2.</_>
        <_>
          9 9 8 8 2.</_></rects>
      <tilted>0</tilted></_>
    <_>
      <rects>
        <_>
          1 3 20 12 -1.</_>
        <_>
          1 3 10 6 2.</_>
        <_>
          11 9 10 6 2.</_></rects>
      <tilted>0</tilted></_>
    <_>
      <rects>
        <_>
          1 4 9 5 -1.</_>
        <_>
          4 4 3 5 3.</_></rects>
      <tilted>0</tilted></_>
    <_>
      <rects>
        <_>
          1 5 17 18 -1.</_>
        <_>
          1 11 17 6 3.</_></rects>
      <tilted>0</tilted></_>
    <_>
      <rects>
        <_>
          1 6 9 3 -1.</_>
        <_>
          4 6 3 3 3.</_></rects>
      <tilted>0</tilted></_>
    <_>
      <rects>
        <_>
          1 7 6 11 -1.</_>
        <_>
          3 7 2 11 3.</_></rects>
      <tilted>0</tilted></_>
    <_>
      <rects>
        <_>
          1 9 6 11 -1.</_>
        <_>
          4 9 3 11 2.</_></rects>
      <tilted>0</tilted></_>
    <_>
      <rects>
        <_>
          1 10 10 3 -1.</_>
        <_>
          1 11 10 1 3.</_></rects>
      <tilted>0</tilted></_>
    <_>
      <rects>
        <_>
          1 11 20 2 -1.</_>
        <_>
          1 11 10 1 2.</_>
        <_>
          11 12 10 1 2.</_></rects>
      <tilted>0</tilted></_>
    <_>
      <rects>
        <_>
          1 11 20 8 -1.</_>
        <_>
          1 15 20 4 2.</_></rects>
      <tilted>0</tilted></_>
    <_>
      <rects>
        <_>
          1 12 12 7 -1.</_>
        <_>
          5 12 4 7 3.</_></rects>
      <tilted>0</tilted></_>
    <_>
      <rects>
        <_>
          1 12 10 12 -1.</_>
        <_>
          1 18 10 6 2.</_></rects>
      <tilted>0</tilted></_>
    <_>
      <rects>
        <_>
          1 18 18 3 -1.</_>
        <_>
          1 19 18 1 3.</_></rects>
      <tilted>0</tilted></_>
    <_>
      <rects>
        <_>
          1 21 6 2 -1.</_>
        <_>
          1 21 3 1 2.</_>
        <_>
          4 22 3 1 2.</_></rects>
      <tilted>0</tilted></_>
    <_>
      <rects>
        <_>
          2 0 12 2 -1.</_>
        <_>
          6 0 4 2 3.</_></rects>
      <tilted>0</tilted></_>
    <_>
      <rects>
        <_>
          2 0 17 4 -1.</_>
        <_>
          2 2 17 2 2.</_></rects>
      <tilted>0</tilted></_>
    <_>
      <rects>
        <_>
          2 1 2 1 -1.</_>
        <_>
          3 1 1 1 2.</_></rects>
      <tilted>0</tilted></_>
    <_>
      <rects>
        <_>
          2 1 10 10 -1.</_>
        <_>
          2 1 5 5 2.</_>
        <_>
          7 6 5 5 2.</_></rects>
      <tilted>0</tilted></_>
    <_>
      <rects>
        <_>
          2 1 12 12 -1.</_>
        <_>
          2 1 6 6 2.</_>
        <_>
          8 7 6 6 2.</_></rects>
      <tilted>0</tilted></_>
    <_>
      <rects>
        <_>
          2 1 21 5 -1.</_>
        <_>
          9 1 7 5 3.</_></rects>
      <tilted>0</tilted></_>
    <_>
      <rects>
        <_>
          2 2 9 21 -1.</_>
        <_>
          5 2 3 21 3.</_></rects>
      <tilted>0</tilted></_>
    <_>
      <rects>
        <_>
          2 3 21 2 -1.</_>
        <_>
          9 3 7 2 3.</_></rects>
      <tilted>0</tilted></_>
    <_>
      <rects>
        <_>
          2 4 6 7 -1.</_>
        <_>
          4 4 2 7 3.</_></rects>
      <tilted>0</tilted></_>
    <_>
      <rects>
        <_>
          2 4 22 2 -1.</_>
        <_>
          2 4 11 1 2.</_>
        <_>
          13 5 11 1 2.</_></rects>
      <tilted>0</tilted></_>
    <_>
      <rects>
        <_>
          2 6 12 1 -1.</_>
        <_>
          6 6 4 1 3.</_></rects>
      <tilted>0</tilted></_>
    <_>
      <rects>
        <_>
          2 6 14 12 -1.</_>
        <_>
          9 6 7 12 2.</_></rects>
      <tilted>0</tilted></_>
    <_>
      <rects>
        <_>
          2 7 22 6 -1.</_>
        <_>
          2 7 11 3 2.</_>
        <_>
          13 10 11 3 2.</_></rects>
      <tilted>0</tilted></_>
    <_>
      <rects>
        <_>
          2 9 12 6 -1.</_>
        <_>
          2 11 12 2 3.</_></rects>
      <tilted>0</tilted></_>
    <_>
      <rects>
        <_>
          2 12 17 6 -1.</_>
        <_>
          2 14 17 2 3.</_></rects>
      <tilted>0</tilted></_>
    <_>
      <rects>
        <_>
          2 17 10 2 -1.</_>
        <_>
          2 17 5 1 2.</_>
        <_>
          7 18 5 1 2.</_></rects>
      <tilted>0</tilted></_>
    <_>
      <rects>
        <_>
          3 0 8 4 -1.</_>
        <_>
          3 0 4 2 2.</_>
        <_>
          7 2 4 2 2.</_></rects>
      <tilted>0</tilted></_>
    <_>
      <rects>
        <_>
          3 2 12 6 -1.</_>
        <_>
          3 2 6 3 2.</_>
        <_>
          9 5 6 3 2.</_></rects>
      <tilted>0</tilted></_>
    <_>
      <rects>
        <_>
          3 5 6 11 -1.</_>
        <_>
          5 5 2 11 3.</_></rects>
      <tilted>0</tilted></_>
    <_>
      <rects>
        <_>
          3 5 5 9 -1.</_>
        <_>
          3 8 5 3 3.</_></rects>
      <tilted>0</tilted></_>
    <_>
      <rects>
        <_>
          3 8 14 3 -1.</_>
        <_>
          3 9 14 1 3.</_></rects>
      <tilted>0</tilted></_>
    <_>
      <rects>
        <_>
          3 9 6 5 -1.</_>
        <_>
          5 9 2 5 3.</_></rects>
      <tilted>0</tilted></_>
    <_>
      <rects>
        <_>
          3 10 6 6 -1.</_>
        <_>
          5 10 2 6 3.</_></rects>
      <tilted>0</tilted></_>
    <_>
      <rects>
        <_>
          3 11 9 6 -1.</_>
        <_>
          6 11 3 6 3.</_></rects>
      <tilted>0</tilted></_>
    <_>
      <rects>
        <_>
          3 13 12 6 -1.</_>
        <_>
          3 15 12 2 3.</_></rects>
      <tilted>0</tilted></_>
    <_>
      <rects>
        <_>
          3 14 21 2 -1.</_>
        <_>
          10 14 7 2 3.</_></rects>
      <tilted>0</tilted></_>
    <_>
      <rects>
        <_>
          3 14 10 10 -1.</_>
        <_>
          3 19 10 5 2.</_></rects>
      <tilted>0</tilted></_>
    <_>
      <rects>
        <_>
          3 15 12 3 -1.</_>
        <_>
          7 15 4 3 3.</_></rects>
      <tilted>0</tilted></_>
    <_>
      <rects>
        <_>
          3 17 15 2 -1.</_>
        <_>
          8 17 5 2 3.</_></rects>
      <tilted>0</tilted></_>
    <_>
      <rects>
        <_>
          4 0 9 19 -1.</_>
        <_>
          7 0 3 19 3.</_></rects>
      <tilted>0</tilted></_>
    <_>
      <rects>
        <_>
          4 0 14 2 -1.</_>
        <_>
          11 0 7 2 2.</_></rects>
      <tilted>0</tilted></_>
    <_>
      <rects>
        <_>
          4 2 20 6 -1.</_>
        <_>
          4 4 20 2 3.</_></rects>
      <tilted>0</tilted></_>
    <_>
      <rects>
        <_>
          4 4 13 8 -1.</_>
        <_>
          4 8 13 4 2.</_></rects>
      <tilted>0</tilted></_>
    <_>
      <rects>
        <_>
          4 5 12 11 -1.</_>
        <_>
          8 5 4 11 3.</_></rects>
      <tilted>0</tilted></_>
    <_>
      <rects>
        <_>
          4 6 2 10 -1.</_>
        <_>
          5 6 1 10 2.</_></rects>
      <tilted>0</tilted></_>
    <_>
      <rects>
        <_>
          4 6 9 2 -1.</_>
        <_>
          7 6 3 2 3.</_></rects>
      <tilted>0</tilted></_>
    <_>
      <rects>
        <_>
          4 6 13 18 -1.</_>
        <_>
          4 12 13 6 3.</_></rects>
      <tilted>0</tilted></_>
    <_>
      <rects>
        <_>
          4 6 15 18 -1.</_>
        <_>
          4 12 15 6 3.</_></rects>
      <tilted>0</tilted></_>
    <_>
      <rects>
        <_>
          4 7 2 17 -1.</_>
        <_>
          5 7 1 17 2.</_></rects>
      <tilted>0</tilted></_>
    <_>
      <rects>
        <_>
          4 7 4 13 -1.</_>
        <_>
          6 7 2 13 2.</_></rects>
      <tilted>0</tilted></_>
    <_>
      <rects>
        <_>
          4 7 15 7 -1.</_>
        <_>
          9 7 5 7 3.</_></rects>
      <tilted>0</tilted></_>
    <_>
      <rects>
        <_>
          4 8 3 13 -1.</_>
        <_>
          5 8 1 13 3.</_></rects>
      <tilted>0</tilted></_>
    <_>
      <rects>
        <_>
          4 8 14 9 -1.</_>
        <_>
          4 11 14 3 3.</_></rects>
      <tilted>0</tilted></_>
    <_>
      <rects>
        <_>
          4 9 2 4 -1.</_>
        <_>
          4 9 1 2 2.</_>
        <_>
          5 11 1 2 2.</_></rects>
      <tilted>0</tilted></_>
    <_>
      <rects>
        <_>
          4 9 6 13 -1.</_>
        <_>
          6 9 2 13 3.</_></rects>
      <tilted>0</tilted></_>
    <_>
      <rects>
        <_>
          4 9 16 8 -1.</_>
        <_>
          4 13 16 4 2.</_></rects>
      <tilted>0</tilted></_>
    <_>
      <rects>
        <_>
          4 10 9 6 -1.</_>
        <_>
          4 12 9 2 3.</_></rects>
      <tilted>0</tilted></_>
    <_>
      <rects>
        <_>
          4 10 14 9 -1.</_>
        <_>
          4 13 14 3 3.</_></rects>
      <tilted>0</tilted></_>
    <_>
      <rects>
        <_>
          4 11 6 4 -1.</_>
        <_>
          6 11 2 4 3.</_></rects>
      <tilted>0</tilted></_>
    <_>
      <rects>
        <_>
          4 13 6 2 -1.</_>
        <_>
          4 13 3 1 2.</_>
        <_>
          7 14 3 1 2.</_></rects>
      <tilted>0</tilted></_>
    <_>
      <rects>
        <_>
          4 13 9 3 -1.</_>
        <_>
          7 13 3 3 3.</_></rects>
      <tilted>0</tilted></_>
    <_>
      <rects>
        <_>
          4 20 6 2 -1.</_>
        <_>
          6 20 2 2 3.</_></rects>
      <tilted>0</tilted></_>
    <_>
      <rects>
        <_>
          5 0 5 6 -1.</_>
        <_>
          5 3 5 3 2.</_></rects>
      <tilted>0</tilted></_>
    <_>
      <rects>
        <_>
          5 2 5 6 -1.</_>
        <_>
          5 4 5 2 3.</_></rects>
      <tilted>0</tilted></_>
    <_>
      <rects>
        <_>
          5 2 12 6 -1.</_>
        <_>
          5 4 12 2 3.</_></rects>
      <tilted>0</tilted></_>
    <_>
      <rects>
        <_>
          5 6 12 10 -1.</_>
        <_>
          5 6 6 5 2.</_>
        <_>
          11 11 6 5 2.</_></rects>
      <tilted>0</tilted></_>
    <_>
      <rects>
        <_>
          5 8 13 9 -1.</_>
        <_>
          5 11 13 3 3.</_></rects>
      <tilted>0</tilted></_>
    <_>
      <rects>
        <_>
          5 8 14 12 -1.</_>
        <_>
          5 12 14 4 3.</_></rects>
      <tilted>0</tilted></_>
    <_>
      <rects>
        <_>
          5 9 14 9 -1.</_>
        <_>
          5 12 14 3 3.</_></rects>
      <tilted>0</tilted></_>
    <_>
      <rects>
        <_>
          5 12 4 10 -1.</_>
        <_>
          7 12 2 10 2.</_></rects>
      <tilted>0</tilted></_>
    <_>
      <rects>
        <_>
          5 12 12 12 -1.</_>
        <_>
          5 16 12 4 3.</_></rects>
      <tilted>0</tilted></_>
    <_>
      <rects>
        <_>
          5 13 8 2 -1.</_>
        <_>
          5 13 4 1 2.</_>
        <_>
          9 14 4 1 2.</_></rects>
      <tilted>0</tilted></_>
    <_>
      <rects>
        <_>
          5 13 12 9 -1.</_>
        <_>
          5 16 12 3 3.</_></rects>
      <tilted>0</tilted></_>
    <_>
      <rects>
        <_>
          6 0 8 3 -1.</_>
        <_>
          6 1 8 1 3.</_></rects>
      <tilted>0</tilted></_>
    <_>
      <rects>
        <_>
          6 0 11 9 -1.</_>
        <_>
          6 3 11 3 3.</_></rects>
      <tilted>0</tilted></_>
    <_>
      <rects>
        <_>
          6 0 12 4 -1.</_>
        <_>
          6 2 12 2 2.</_></rects>
      <tilted>0</tilted></_>
    <_>
      <rects>
        <_>
          6 3 15 10 -1.</_>
        <_>
          6 8 15 5 2.</_></rects>
      <tilted>0</tilted></_>
    <_>
      <rects>
        <_>
          6 5 9 3 -1.</_>
        <_>
          6 6 9 1 3.</_></rects>
      <tilted>0</tilted></_>
    <_>
      <rects>
        <_>
          6 7 12 6 -1.</_>
        <_>
          10 7 4 6 3.</_></rects>
      <tilted>0</tilted></_>
    <_>
      <rects>
        <_>
          6 8 10 9 -1.</_>
        <_>
          6 11 10 3 3.</_></rects>
      <tilted>0</tilted></_>
    <_>
      <rects>
        <_>
          6 8 11 12 -1.</_>
        <_>
          6 12 11 4 3.</_></rects>
      <tilted>0</tilted></_>
    <_>
      <rects>
        <_>
          6 9 12 4 -1.</_>
        <_>
          10 9 4 4 3.</_></rects>
      <tilted>0</tilted></_>
    <_>
      <rects>
        <_>
          6 9 12 9 -1.</_>
        <_>
          10 9 4 9 3.</_></rects>
      <tilted>0</tilted></_>
    <_>
      <rects>
        <_>
          6 9 12 12 -1.</_>
        <_>
          6 13 12 4 3.</_></rects>
      <tilted>0</tilted></_>
    <_>
      <rects>
        <_>
          6 9 15 15 -1.</_>
        <_>
          6 14 15 5 3.</_></rects>
      <tilted>0</tilted></_>
    <_>
      <rects>
        <_>
          6 10 10 12 -1.</_>
        <_>
          6 14 10 4 3.</_></rects>
      <tilted>0</tilted></_>
    <_>
      <rects>
        <_>
          6 10 12 12 -1.</_>
        <_>
          6 14 12 4 3.</_></rects>
      <tilted>0</tilted></_>
    <_>
      <rects>
        <_>
          6 12 8 12 -1.</_>
        <_>
          6 16 8 4 3.</_></rects>
      <tilted>0</tilted></_>
    <_>
      <rects>
        <_>
          6 13 12 6 -1.</_>
        <_>
          6 13 6 3 2.</_>
        <_>
          12 16 6 3 2.</_></rects>
      <tilted>0</tilted></_>
    <_>
      <rects>
        <_>
          7 0 8 9 -1.</_>
        <_>
          7 3 8 3 3.</_></rects>
      <tilted>0</tilted></_>
    <_>
      <rects>
        <_>
          7 0 9 6 -1.</_>
        <_>
          7 2 9 2 3.</_></rects>
      <tilted>0</tilted></_>
    <_>
      <rects>
        <_>
          7 1 9 3 -1.</_>
        <_>
          7 2 9 1 3.</_></rects>
      <tilted>0</tilted></_>
    <_>
      <rects>
        <_>
          7 2 4 4 -1.</_>
        <_>
          7 2 2 2 2.</_>
        <_>
          9 4 2 2 2.</_></rects>
      <tilted>0</tilted></_>
    <_>
      <rects>
        <_>
          7 5 16 12 -1.</_>
        <_>
          7 11 16 6 2.</_></rects>
      <tilted>0</tilted></_>
    <_>
      <rects>
        <_>
          7 6 10 10 -1.</_>
        <_>
          7 6 5 5 2.</_>
        <_>
          12 11 5 5 2.</_></rects>
      <tilted>0</tilted></_>
    <_>
      <rects>
        <_>
          7 8 9 6 -1.</_>
        <_>
          7 11 9 3 2.</_></rects>
      <tilted>0</tilted></_>
    <_>
      <rects>
        <_>
          7 9 8 6 -1.</_>
        <_>
          7 9 4 3 2.</_>
        <_>
          11 12 4 3 2.</_></rects>
      <tilted>0</tilted></_>
    <_>
      <rects>
        <_>
          7 9 7 15 -1.</_>
        <_>
          7 14 7 5 3.</_></rects>
      <tilted>0</tilted></_>
    <_>
      <rects>
        <_>
          7 9 12 9 -1.</_>
        <_>
          7 12 12 3 3.</_></rects>
      <tilted>0</tilted></_>
    <_>
      <rects>
        <_>
          7 9 12 12 -1.</_>
        <_>
          7 13 12 4 3.</_></rects>
      <tilted>0</tilted></_>
    <_>
      <rects>
        <_>
          7 10 11 4 -1.</_>
        <_>
          7 12 11 2 2.</_></rects>
      <tilted>0</tilted></_>
    <_>
      <rects>
        <_>
          7 11 10 12 -1.</_>
        <_>
          7 15 10 4 3.</_></rects>
      <tilted>0</tilted></_>
    <_>
      <rects>
        <_>
          7 14 2 2 -1.</_>
        <_>
          8 14 1 2 2.</_></rects>
      <tilted>0</tilted></_>
    <_>
      <rects>
        <_>
          8 0 12 4 -1.</_>
        <_>
          8 2 12 2 2.</_></rects>
      <tilted>0</tilted></_>
    <_>
      <rects>
        <_>
          8 1 5 3 -1.</_>
        <_>
          8 2 5 1 3.</_></rects>
      <tilted>0</tilted></_>
    <_>
      <rects>
        <_>
          8 2 7 8 -1.</_>
        <_>
          8 6 7 4 2.</_></rects>
      <tilted>0</tilted></_>
    <_>
      <rects>
        <_>
          8 3 2 16 -1.</_>
        <_>
          8 11 2 8 2.</_></rects>
      <tilted>0</tilted></_>
    <_>
      <rects>
        <_>
          8 3 4 15 -1.</_>
        <_>
          10 3 2 15 2.</_></rects>
      <tilted>0</tilted></_>
    <_>
      <rects>
        <_>
          8 4 9 12 -1.</_>
        <_>
          11 4 3 12 3.</_></rects>
      <tilted>0</tilted></_>
    <_>
      <rects>
        <_>
          8 5 9 9 -1.</_>
        <_>
          11 5 3 9 3.</_></rects>
      <tilted>0</tilted></_>
    <_>
      <rects>
        <_>
          8 5 4 6 -1.</_>
        <_>
          8 7 4 2 3.</_></rects>
      <tilted>0</tilted></_>
    <_>
      <rects>
        <_>
          8 5 10 6 -1.</_>
        <_>
          8 5 5 3 2.</_>
        <_>
          13 8 5 3 2.</_></rects>
      <tilted>0</tilted></_>
    <_>
      <rects>
        <_>
          8 6 6 4 -1.</_>
        <_>
          10 6 2 4 3.</_></rects>
      <tilted>0</tilted></_>
    <_>
      <rects>
        <_>
          8 6 8 6 -1.</_>
        <_>
          8 8 8 2 3.</_></rects>
      <tilted>0</tilted></_>
    <_>
      <rects>
        <_>
          8 6 8 9 -1.</_>
        <_>
          8 9 8 3 3.</_></rects>
      <tilted>0</tilted></_>
    <_>
      <rects>
        <_>
          8 7 3 4 -1.</_>
        <_>
          8 9 3 2 2.</_></rects>
      <tilted>0</tilted></_>
    <_>
      <rects>
        <_>
          8 7 5 6 -1.</_>
        <_>
          8 9 5 2 3.</_></rects>
      <tilted>0</tilted></_>
    <_>
      <rects>
        <_>
          8 7 5 9 -1.</_>
        <_>
          8 10 5 3 3.</_></rects>
      <tilted>0</tilted></_>
    <_>
      <rects>
        <_>
          8 7 7 6 -1.</_>
        <_>
          8 9 7 2 3.</_></rects>
